249 100
the -0.00829 0.0078523 -0.0062189 -0.0020117 0.0048746 0.0012224 0.0061883 0.00025868 0.0099161 0.0093434 -0.0014646 0.0030652 0.0092454 0.00717 -0.0041234 -0.0017146 0.00030692 0.0058013 0.00088891 -0.0081163 -0.0013351 0.0069151 0.0054816 -0.0061968 0.0055858 -0.0063971 0.001597 -0.0037354 -0.0017582 0.0098632 -0.0067007 -0.003275 -0.0084878 -0.0065055 -0.0092664 -0.00065937 0.0034797 -0.0086926 -0.0022008 -0.0067174 0.0098337 0.0074196 0.0034531 0.0017433 -0.0048825 0.0018836 -0.0045622 -0.0045657 -0.0080843 0.0026316 -0.006976 0.0089834 -0.0091397 0.0046937 -0.00068796 -0.0055633 0.0014499 0.0020931 0.0039571 0.0033166 -0.0065192 0.005021 0.0065098 0.0050662 -0.0036128 0.000661 -0.0070373 0.005862 0.0082403 0.0059007 -0.0098214 0.0002225 -0.0040954 0.0011818 8.5872e-05 -0.0037754 0.0096857 0.0093148 -0.0010322 -0.0039234 -0.008875 0.0060313 0.0096677 -0.0089783 -0.0052113 -0.0078957 0.00070732 0.00043304 -0.0034035 -0.0036479 0.0095839 0.0047055 0.0091044 -0.0090302 0.0014236 -0.0088116 0.0062363 0.0095859 -0.0054889 -0.0018578 
and 0.0023729 0.0050785 0.0083258 -0.0092805 0.0066042 0.0080635 -0.0064746 0.0013273 -0.0034483 -0.0021167 -0.00071344 -0.0063401 -0.0048538 0.0022036 -0.0060662 -0.0071724 0.0033833 0.0060353 -0.006883 -0.00057187 -0.0048915 0.0098701 0.0039616 0.0069634 -0.0086004 -0.0061504 -0.0098452 -0.0011968 -0.0022062 -0.0072979 -0.0050235 -0.0007851 0.0039762 -0.0058609 -0.0063436 -0.0021074 -0.007151 0.004327 -0.00053649 -0.0027585 -0.010001 0.009436 -0.0051499 0.0030843 0.0087899 0.0019181 0.0080706 -0.0033827 -0.0039159 0.0035127 -0.00099666 -0.0018258 0.0023669 0.0048933 -0.0090515 0.0035291 -0.0096429 0.00069049 0.008761 -0.0024516 -0.00015559 0.0035164 0.0056724 0.0078676 0.0045421 -0.0035745 -0.007095 -0.0052644 -0.0057548 -0.0056961 0.0015687 0.0050458 0.0058067 -0.0073251 -0.0023886 -0.0025404 -0.0039294 0.0028822 0.00645 0.0056546 0.00048462 -0.0058142 0.0026786 0.0027908 0.0047797 0.0036016 -0.002019 -0.0098629 -0.0047361 0.0072822 0.0028693 0.0024819 0.002496 0.0018033 0.00934 0.002326 -0.00063293 0.0024162 -0.0068183 -0.0071524 
</s> 0.0072966 -0.0080689 -0.00091412 -0.0034876 0.00028451 -0.0073287 -0.0086025 -0.0094104 0.0096665 0.0091698 -0.0099603 -0.0024127 -0.001886 -0.0059825 -0.0028761 0.0046921 0.0025039 -0.0028643 -0.0076569 0.0032097 0.0070539 -0.0065388 -0.0064069 0.002676 -0.00039275 -0.0013708 0.0050778 -0.0094189 -0.008357 0.0021564 0.003024 0.007078 -0.0044644 0.0030215 -0.0085698 -0.0071519 -0.0074822 0.0089176 0.0087319 0.0083712 -0.0077187 0.0046429 0.0047745 -3.6918e-05 0.0037626 0.0046046 0.0081451 0.0076684 0.006102 0.0073377 -0.0015898 -0.00038993 0.0054278 -0.0056627 -0.009692 0.0079623 0.0018631 -0.0082898 -0.0066878 -0.0042064 0.0097471 0.0085036 0.0067768 0.0066294 -0.006322 0.0031419 -0.0055537 -0.0022156 0.0040185 -0.0089082 0.0072115 0.0035128 0.0034163 -0.0097862 -0.0090794 0.0032659 0.008811 -0.0038706 0.0090352 -0.0078265 0.0086662 -0.0025109 -0.0070255 -0.0051335 -0.0021311 -0.0068723 -0.0023156 0.0095041 0.0065228 -0.0036167 -0.0063064 -0.00056023 0.0068638 -0.0031108 0.0033064 -0.0013079 -0.0021328 0.0052507 0.0058781 0.0088216 
our 0.00032723 0.0092565 -0.0061199 -0.0034165 0.0008079 0.0079896 -0.0059653 -0.00042606 0.0060559 0.0064651 -0.0042171 0.0089323 -0.0072414 0.0043374 0.0053424 -0.005602 -0.0067767 -0.0077665 0.0077757 0.0030332 0.0084025 0.0085779 -0.00029807 0.0013901 -0.0070622 0.004787 0.0078304 -0.0023145 -0.0092286 -0.0049616 0.0066107 0.0053007 -0.00058299 0.0084699 -0.0019016 0.0078429 0.0021621 -0.0039969 -0.0017515 0.004263 0.0021516 -0.0004112 -0.0039359 -0.0067793 -0.00084583 -0.0044211 0.007285 -0.00122 0.0045609 0.0065589 -0.0094695 -0.0058982 0.001474 -0.0067334 -0.0018914 -0.0052793 -0.00029897 0.0027465 0.0043914 0.00067097 -0.0081766 0.0026545 0.0030971 -0.0083768 -0.0069244 0.002343 0.00070918 -0.0053338 -0.0013824 -0.0041318 0.0086529 0.0025856 0.0005535 0.0040496 -0.00011143 0.0083922 0.0047447 0.0092544 0.006632 -0.0076434 0.0010433 0.0031591 0.0080682 0.0053179 0.0095919 1.1668e-05 -0.0012118 0.0075417 -0.009248 -0.0088315 0.0011547 -0.0060044 0.00091274 0.0031463 -0.0060777 -0.0039682 0.00037291 0.0043504 -0.0024082 0.0023081 
a -0.004285 0.0049521 0.00023849 0.0015397 0.0094171 0.0092721 0.004517 -0.0094294 0.0053939 0.0042619 -0.00039138 -0.0047179 -0.0047491 0.0026926 0.0087682 0.00080531 0.0028213 -0.0022407 -0.0058042 0.0089833 0.0082787 -0.0029858 -0.0044868 -0.0092223 0.0029741 0.0038082 0.0092539 0.0036637 0.0073373 0.0069521 0.0054051 -0.0088455 -0.0079121 -0.0018066 0.00096121 0.0070189 -0.0090778 0.0093197 0.0057779 0.00073272 -0.0037392 -0.0024542 0.0075878 0.0093888 0.0046971 -0.0099732 -0.00086452 0.0087729 -0.0019326 -0.0030733 -0.0051452 0.0052882 0.0043616 0.00033001 0.0094427 0.0072983 -0.0051562 0.0050523 -0.0095164 0.009218 0.0029724 0.0017666 -0.0044058 -0.0011861 0.007273 0.0053699 -0.0045728 -0.0088168 -0.005669 0.0041613 -0.0041355 -0.00093518 -0.0074008 0.0069641 -0.0049635 -0.0042032 -0.0068622 -0.0097467 0.0045493 -0.0024522 -0.0078216 0.0019479 0.00075041 0.0034032 -0.00068421 -0.0030124 0.0025246 0.0055429 -0.0045264 0.0074658 0.0056096 0.00076561 0.0090274 -0.00058229 0.0023267 0.0076461 -0.00044779 -0.0088041 -0.0063619 -0.0059995 
to 0.0093331 0.0050237 0.0061416 -0.0044943 0.0050781 0.0035599 -0.0079224 -0.0027864 -0.0085238 0.0093873 5.5728e-05 0.003892 -0.0052379 -0.0015076 -0.0064479 0.003962 -0.0065101 -0.0082933 0.0073692 -0.0065691 -0.0071255 0.0019073 0.0064024 -0.0029782 0.0025326 0.0064321 -5.34e-05 -0.0066289 -0.0082909 -0.0065943 -0.0069038 0.0068027 -0.0046804 -0.0011267 0.0039157 0.0062593 -0.0071993 -0.0050638 -0.0083387 0.0089479 -0.0062593 -0.0003792 -0.0043617 0.00324 0.0077955 -0.0030988 -0.0029615 -0.0098871 -0.0051993 0.0080992 -0.0057575 -0.0084416 -0.009809 0.0064245 0.0042557 0.0025604 0.0019249 -0.00047188 0.00048881 -0.0023771 -0.0084989 -0.0037913 0.0085134 -0.0037142 0.0048631 0.0026555 -0.0097225 -0.0063739 -0.0052181 0.0076605 -0.0021296 0.0066083 0.0096947 -0.0098621 -0.0032529 -0.0023606 0.0030238 -0.007735 -0.0061228 -0.0034152 0.0052376 0.0052216 0.0025852 0.0099547 0.0066012 -0.0013597 -0.009327 0.0013785 -0.0087708 0.0096518 -0.0011557 -0.0016747 -0.0082016 0.0021097 0.00041804 0.00016226 -0.0086026 -0.00061355 -0.0059498 -0.007729 
is 0.0072921 -0.00062496 0.008666 -0.0083327 -0.0038071 0.0038635 0.0043008 -0.0016519 0.00088318 0.00051469 0.00058486 0.0059696 -0.0098513 -0.0094406 -0.0051601 0.0084147 -0.0017249 -0.0022616 0.00056018 0.0049838 0.0076085 0.0093053 0.0018038 -0.0046112 0.001983 0.005476 -0.0056004 -0.00073211 0.00046488 0.0092428 -0.0066002 -0.009991 -0.0061107 0.0018204 0.0038832 0.0060408 0.0045047 0.0035518 -0.00012613 0.0010362 -0.0040468 0.0066071 0.0052554 -0.0049558 0.0076195 -0.0061329 0.0095573 -0.0076502 -0.00021894 -0.006064 0.0051026 0.0063934 -0.0057858 0.00023767 0.004822 -0.0033909 -0.0012726 0.0031188 0.0081182 -0.0019458 -0.00045283 0.0064333 -0.0092952 -0.0091424 -0.0060231 0.0059559 -0.0098999 0.0040272 -0.00094425 0.0099734 -0.0079176 0.0021286 -0.0052934 -0.0028807 0.0013678 0.00094589 -0.00016493 -0.0079668 -0.0078302 -0.0030588 0.0064682 0.0077317 0.0041478 -0.0063846 0.0069782 -0.0052282 0.0077695 0.0053595 0.0090111 0.00027514 -0.0015169 -0.0047251 -0.0031301 -0.00093431 -0.0066313 -0.0080089 -0.0020135 -0.0039788 0.0081624 -0.0093599 
on -0.0066151 -0.0035419 -0.0082968 -0.0066029 0.0085424 -0.0026519 -0.0040866 0.0011232 0.00097215 -0.0066936 0.0034821 -0.0086156 0.00013126 0.0093143 0.0063336 -0.0012466 -0.0052241 0.0009774 0.0021899 0.0049372 0.0013665 -0.0036423 -0.0067107 0.0027431 -0.00563 -0.005825 -0.0046447 0.0051982 -0.0046484 0.0022584 -0.00077526 0.0075218 0.0093012 0.0041896 -0.0093759 0.0050343 0.0080062 -0.0090132 0.0081189 0.0023655 0.0051453 0.0056203 0.00018516 0.0066737 0.0049691 0.0054267 0.0076164 0.0076884 0.006218 0.0096394 -0.0064654 -0.00059948 0.0055255 0.008455 0.0024265 -0.0017611 0.00042543 0.0010378 0.0057755 -0.0072239 -0.0010693 -0.0080322 0.0093546 -0.008846 -0.0065066 -0.0073765 0.0028372 -0.002512 -0.0086364 -0.0048305 -0.0060207 0.0058177 -0.0087045 0.0010732 0.0083316 0.0085471 -0.0061608 0.0066786 -0.0045239 -0.0029394 -0.0023623 -0.0041584 0.0076525 0.008048 0.00086259 0.0091228 -0.00083766 0.004428 0.00071908 -0.0031792 0.0095515 -0.0034293 -0.0091519 -0.0045824 -0.0099285 -0.0059043 -0.0032632 -0.0097821 0.006991 -0.002823 
have 0.0060476 -0.0055365 0.00841 -0.0035804 0.0073439 -0.0098139 -0.0019432 0.0026846 -0.0084725 -0.0035592 -0.0087311 -0.0026404 -0.0039557 0.0097855 0.0041353 -0.0069419 0.0015425 0.0051594 0.0084596 -0.00073282 -0.0087387 -0.0027443 0.0034217 -0.0059071 -0.00037615 -0.0034892 0.0090817 -0.0090545 0.0088013 0.0052409 0.0018535 0.0097819 0.0049268 -0.002249 -0.0069695 0.0024756 0.0086265 0.0040542 0.001615 0.0096122 -0.0084678 -0.0096363 0.0095625 0.0070673 0.0074705 -0.0080146 0.0037426 0.0051461 -0.0030382 0.0098937 -0.0036405 0.0046757 -0.0065129 0.0073889 -0.0016632 0.0072756 -0.00083363 -0.0092557 -0.0042082 0.0050592 -0.0026949 0.0015653 0.0060351 0.0098729 -0.0026553 -0.0068191 0.0086975 -0.0046495 -0.0048662 -0.0033533 0.0035166 -0.0088374 0.002203 0.0083633 0.0092252 0.0074155 -0.0064593 0.0060547 0.0084924 0.0095708 -0.0015815 -0.0030699 -0.0018928 -0.0076589 0.0088505 0.0068715 0.0052131 0.0024158 0.00026317 0.0022336 -0.0012274 -0.0048564 0.0084795 0.0062976 -0.0046823 -0.0022818 -0.0024672 0.0094529 0.0075636 -0.0035803 
my -0.0070419 -0.00076295 0.0018458 0.0069594 -0.0015824 0.0069654 0.0046408 0.00097693 -0.0041786 -0.0069316 -0.0070878 -0.004908 0.0065284 -0.00955 -0.007552 -0.0061209 -0.0040493 -0.0098832 0.0025241 -0.0037984 -0.0044692 -0.0029087 0.0024037 -0.0040983 -0.0086443 -0.00024656 0.0070179 -0.0077308 0.0055613 -0.0068617 0.0025945 -0.0070856 0.0044261 -0.0054115 -0.0041547 -0.001662 -0.0055513 0.0085028 0.00070735 0.00021401 0.0031681 0.0065792 -0.002148 0.0038232 -0.0011359 0.00040846 0.0047571 -0.0020989 -0.00078308 -0.0016615 -0.0010593 -0.0080021 0.0014867 -0.0020947 0.005539 0.0044978 0.0032633 0.0091481 0.0096346 0.0056085 -0.0047743 0.0024306 -4.605e-05 0.0047144 -0.0037132 -0.0068835 -0.0030482 0.009086 -0.0036207 0.0045861 0.0036676 -0.0051952 0.0016227 0.0059714 0.00014824 0.0058175 -0.0031391 0.0011424 0.0066444 -0.001401 0.0085938 -0.0061617 0.0056121 -0.0093021 -0.0067449 0.0017474 -0.0099813 0.0049577 -0.0013584 -4.4935e-05 0.0023911 0.0076633 0.0098207 -0.0051144 -0.0091679 -0.0031552 -0.0086096 0.0010968 -0.0048327 -0.0098444 
are 0.0065792 0.0021876 -0.0062298 0.0079602 0.0092705 0.0012586 -0.0019031 -0.0014307 -0.00069297 -0.0023558 0.0084847 0.00076929 0.00013262 0.00067527 -0.0022374 -0.0031033 -0.00051138 -0.006887 0.0089543 0.0067967 0.0027803 -0.001416 0.0094848 -0.010014 -0.0046405 -0.0076399 0.0075174 -0.0034575 -0.0038679 0.0017214 0.0097557 -0.0077175 -0.00029922 -0.0031614 0.0065456 -0.0079516 -5.383e-05 -0.00082914 -0.0012921 -0.0090631 -0.0048696 -0.0012988 -0.0089058 -0.0029899 0.0067892 0.0099872 -0.0026968 0.0052779 -0.0066137 0.00058946 -0.0097927 -0.0043233 0.0066406 -0.0010032 0.0033479 -0.0072614 0.0014612 0.0094386 0.0068326 0.0010528 0.0060239 0.0058139 0.0038622 0.006542 -0.0039142 0.0096912 0.0042841 0.00077186 -0.0048113 0.0094248 0.0090399 0.0091912 0.006061 -0.0075034 -0.0025745 -0.0017426 0.00038516 0.0076721 0.0042949 -0.0053072 -0.0027241 0.0058052 -0.0035663 -0.0031581 0.009593 -0.0064816 -0.0039023 0.0004156 -0.0071229 -0.0023658 -0.0051225 0.0032369 0.0070222 -0.0083736 -0.0098279 -0.0092137 0.0058098 -0.0026797 -0.0053104 0.0039144 
with 0.0085202 0.0063828 -0.005034 0.008715 -0.0040382 0.005755 0.0099553 0.00086944 -0.0080668 -0.0047551 -0.0069932 0.0013436 0.0073163 -0.00073419 0.006191 -0.00082327 0.00015491 -0.0076402 0.00040084 0.0020779 0.0031693 0.0061193 0.00099491 0.0063551 -0.0068509 0.0058469 -0.0038843 0.0049271 -0.0097623 0.0036731 0.0038355 0.0087568 -0.0020221 -0.0099861 0.0011398 0.00054935 1.1361e-05 -0.0026188 -0.00067404 0.001903 0.0034195 0.0048657 0.0070176 0.008384 0.0047544 0.0013985 -0.0009079 0.00149 -0.0070884 0.0077827 -0.0066289 0.00038099 0.003982 -0.0081156 0.0089432 0.0044724 0.0024302 -0.0035036 0.0068483 -0.0099338 0.0059903 0.0024552 0.007526 0.0083416 0.0081423 -0.0042355 -0.0036265 0.0043421 -0.0072473 0.0020551 -0.0051251 0.00070698 0.009027 0.0049093 -0.0062708 0.0031374 -0.0021912 -0.0025076 0.0075563 -0.0088202 0.006775 0.0039077 -0.0063187 0.0057136 0.0060496 0.0056416 0.0089574 0.0015918 0.001589 -0.0092968 -0.0025964 0.0087545 -0.00022348 0.0096395 0.0053379 -0.00069052 -0.0089629 -0.0023887 -0.009336 -0.0060992 
He 0.0018096 -0.0069334 -0.007056 -0.0054549 0.0087967 0.00039357 -0.0091302 -0.0035105 0.0037329 -0.0033168 -0.0021687 0.0088481 0.0098081 0.0079643 0.0032852 -0.0011524 -0.00090835 -0.0033227 0.0076879 -0.0046649 0.0085975 -0.00038838 0.0046376 0.0018562 -0.0031634 -0.0074114 0.0064589 0.0083431 0.0078037 -0.0044028 0.0015019 0.0030821 0.0070085 0.0020448 -0.0090671 0.0036295 0.0086895 -0.0065052 -0.0067277 -0.0016841 0.005937 -0.0054732 0.0092866 -0.0074819 0.0074725 -0.0078405 -0.00054485 0.008446 0.0019368 0.0012912 0.0046698 -0.0096374 -0.00092334 -0.0053975 -0.0032633 -0.0056529 -0.0076948 -0.0036716 -0.0076543 -0.0044733 0.0032848 0.0063251 0.0051594 -0.00091029 -0.0080967 0.0070849 -0.008793 -0.00012679 0.0047031 -0.0053955 0.0042446 0.0064577 0.0058245 -0.0048121 -0.0015866 -0.0081221 0.0031061 0.0090511 0.00082723 0.0072975 0.0012558 0.0016672 0.0028336 -0.0045439 0.0053524 0.00098277 0.00077043 -0.0023674 -0.0051322 0.0011348 0.0015085 -0.0090735 -0.0016569 -0.0085726 -0.0034027 -0.006677 0.0051062 -0.0092357 -0.0001888 -0.0075009 
of 0.0034596 -0.0035909 0.0054036 0.0070429 -0.0053955 0.0059286 0.0034707 -0.0059711 0.0081061 0.0024856 0.0024428 0.0048073 -0.0086606 0.00516 -0.0026679 0.0061369 0.0053741 0.0082829 -0.009606 -0.0032548 -0.002946 -0.0043539 -0.0048217 0.0012322 0.005303 0.0035935 0.0081864 0.0050715 0.0067794 0.0015431 0.0059128 0.00043511 -0.0025477 -0.0049716 0.0079326 0.0072821 -0.0082301 -0.0088206 0.0046014 -0.0034869 0.0085048 0.001615 -0.0008846 0.0048014 0.0061699 -0.0055391 -0.0089115 0.0010982 0.0040044 -0.0034532 -0.00065789 0.0074825 -0.008741 0.0039617 -0.0095496 -0.0024552 -0.0072122 0.004203 -0.0099978 0.004527 -0.0087864 -0.0049948 0.002747 0.0098609 -0.0022227 -0.0055671 -0.0048542 0.0008097 0.0048232 -0.0028565 -0.0092687 0.0060476 0.004519 -0.00079177 -0.005115 -0.0076255 0.0081205 -0.0091272 -0.006721 -0.0017491 0.0054245 0.0043664 -0.0078744 0.006994 -0.0022752 0.0071184 0.0075014 -0.0078261 -0.0029625 0.0054612 -0.0067476 0.0050102 0.0049304 -0.0063487 -0.0020297 0.0014609 -0.0023247 -0.0022492 0.0096113 -0.0031628 
they 0.0019737 -0.0084879 0.0023171 0.0077226 0.0062174 -0.0095928 0.0024273 -0.0036205 0.0018454 0.003483 -0.0043165 0.0088697 -0.0096427 -0.0037297 -0.0048933 -0.0027353 -0.00027448 0.0081069 -0.00505 0.0099377 -0.0066227 0.006189 0.00096255 -0.0063823 0.0020362 0.0051041 0.007459 -0.0096485 0.0058876 0.0049846 -0.0043806 0.0077724 -0.0079938 -0.0068738 0.0090032 -0.0049288 0.0004036 0.0052605 -0.0058037 -0.008958 -0.0068442 0.0062722 -0.0048958 -0.00030117 -0.0017632 -0.0010785 0.009662 -0.0055953 0.008644 0.0028889 -0.0075743 0.0067524 -0.0031395 -0.0017763 -0.0059789 -0.0064037 0.0002667 -0.0028478 0.0025458 0.0044124 -0.0067668 0.0025323 -0.0095139 0.0066298 0.0088493 -0.0067892 -0.00034308 0.00069993 -0.0019383 0.0031069 -0.0082136 -0.0027914 0.0042275 -0.0095652 -0.0090305 0.0092632 0.0084218 0.0079458 -0.003788 0.0085826 0.0052725 -0.0081095 -0.0014236 0.0080038 -0.0023629 -0.0047011 0.0056355 0.00206 -0.0032495 -0.0088646 0.0082358 0.0032856 -0.0052877 0.0040203 -0.0080385 -0.0093168 -0.0029591 0.00085832 0.0014279 -0.0010028 
be 0.002843 0.0065217 -0.0039791 -0.0086316 0.0035845 0.006351 -0.0063742 -0.0072326 -0.003928 0.0066751 0.0056896 -0.0089092 0.0017492 0.0025652 0.0062134 0.0099541 -0.0027395 0.00039122 -0.0073097 -0.0070598 0.0087877 -0.0089939 -0.0093308 0.0094884 0.00025979 0.0034521 -0.0053769 0.0093793 -0.0094622 -0.0055835 0.0040782 0.0078477 0.0093846 -0.0063984 -0.0068913 -0.0058333 -0.0094134 -0.005232 0.0010464 0.0096807 -0.00027895 0.0051844 0.0095204 0.0064305 -0.0043 -0.0081367 0.0031073 0.0099217 0.0015474 0.0077349 -0.0039129 0.0096839 0.00071091 -0.003577 0.005653 0.0074837 -0.0027514 -0.006887 0.0072419 -0.003686 0.0045293 -0.0062965 -0.0068057 0.0042215 0.0059902 -0.0062244 0.0091788 0.0015131 -0.0061604 0.0066224 0.0070966 0.0081708 -0.0098924 -0.0066053 0.0080341 -0.0034994 -0.0032583 -0.0087691 0.0022771 0.0023362 0.00043762 0.0098403 0.003306 0.0029102 -0.0022538 -0.007286 0.0044813 -0.0091637 0.0013481 -0.0098186 -0.0095175 0.0053651 0.0049374 -0.0035735 -0.0014573 0.0057767 -0.0044705 -0.0028868 0.005692 0.0027248 
will 0.003877 0.002074 -0.0039215 0.0014284 0.0036127 0.0066519 -0.0063201 -0.0039578 0.0085359 0.0051071 0.0066015 0.0058889 -0.0051484 0.0044229 0.0037685 -0.0060798 0.001843 0.0034575 -0.0060754 -0.0023728 -0.001038 0.0057505 0.0097313 0.0062896 0.00081268 0.0026733 0.0064723 -0.00093528 -0.0026083 0.0048645 0.0098367 -0.0016663 0.00095239 -0.0076837 -0.0096711 -0.0067448 -0.00089981 -0.0037971 0.0090778 -0.00064332 -0.0072954 0.0089369 0.0057722 0.0069762 0.0041612 0.0085167 -0.00050268 0.0056731 0.0070845 -0.00097512 0.0060155 0.002481 0.0013818 -0.0064033 -0.00057367 -0.0010804 0.0094384 -0.0026971 -0.0016233 0.0010357 0.0038769 -0.0096986 0.0091367 0.0021656 0.0022511 0.0042724 0.0087448 0.0017001 0.0051663 -0.0040128 -0.004183 0.0041339 0.0089983 0.0062612 0.0060588 -0.00023772 0.0022435 -0.0026957 0.0079094 0.0056393 -0.0057987 0.0012471 0.0014763 0.0083912 0.0020483 0.006055 -0.0093696 -0.0087969 0.0066662 0.0053257 0.0079448 0.0069633 0.0089419 0.0097494 0.0035501 -0.0098922 -0.0010863 0.0056142 0.0059305 -0.0026291 
for 0.0072289 -0.0075819 0.00082474 0.0021153 -0.0013545 -0.0089802 -0.0078263 0.0057436 0.0053113 -0.008885 -0.0023238 0.0026332 -0.0063374 -0.00019433 -0.0096521 0.0097598 0.0075356 0.00038537 -0.00096862 -0.0092414 0.0045769 -0.00045972 -0.0091955 -0.0043028 -0.0056255 0.0073468 0.0024944 -0.0076928 -0.0019547 0.0045803 -0.0043699 -0.0035694 0.0011186 -0.0036053 0.00039105 -0.0034788 0.0067651 0.0010339 0.002305 -0.0063459 0.0073759 0.0019409 -0.0029329 0.0037943 0.0032634 -0.0069762 0.0055674 -0.0051242 -0.0053033 -0.0043661 -0.0077519 0.0028061 -0.0051006 -0.0039335 0.0079585 -0.0068045 0.0043868 0.0019288 -0.0021354 -0.0011228 -0.0091696 -0.0063846 0.00788 0.0091279 -0.0033997 0.0074723 0.005459 0.0093849 -0.002259 0.0072192 -0.006823 0.0060336 0.0012858 0.00081736 0.00071289 -0.0088977 -0.0023773 0.0077629 0.0071981 0.0084162 0.0097309 -0.0024147 -0.0020281 -0.0096234 0.0038459 -0.00053049 0.0012935 -0.0020071 0.0069788 -0.0084427 0.0088215 -0.006536 0.0067292 0.0033391 0.0003842 -0.0036144 -0.0027041 -0.0022003 -0.0048813 0.0056556 
Democrats 0.0064882 0.0079646 -0.0070808 -0.0079231 0.0015703 -0.0078227 -0.003605 0.0082784 -0.00095768 0.0038268 -0.0060622 -0.0023658 0.0040914 0.0084545 0.0067935 0.0064793 -0.0053155 -0.0032991 0.0029876 -0.0039183 0.0023979 0.0016721 -0.00033118 0.0029181 -0.0030117 -0.0027826 0.0075107 -0.0096814 0.0016412 -0.008682 -0.0037163 -0.0078968 0.0061208 -0.0048968 -0.0035628 -0.0051654 0.0021795 -0.0079462 -0.0081047 0.0046077 0.0055446 -0.00059351 0.00088567 -0.0033769 0.0015465 -0.009385 -0.0074969 0.0088712 -0.0015276 -0.0046466 -0.0086083 0.0090785 -0.0083311 0.0056173 -0.0078052 -0.0015839 -0.0053623 0.00901 0.0080493 0.0090343 0.0087303 -0.00044258 0.0083563 0.008599 -0.00062593 0.0028159 0.0064631 -0.0037509 -0.007617 0.0029808 -0.0045415 -0.00099768 0.0038023 -0.001135 -0.00022148 0.0020666 0.0067561 0.00070279 0.0010019 -0.0025478 0.0052577 -0.0094741 0.0049806 0.00050289 0.0084616 0.0096397 0.0003152 0.00646 0.005401 -0.00017409 0.0013744 0.0076555 0.0091196 -0.0089199 -0.0074437 -0.0025643 -0.0059025 0.0031945 -0.0031062 0.0039676 
great 0.0037774 -0.0042876 0.007549 0.0066544 0.008173 0.0086154 0.0010906 -0.0007937 -0.00036264 0.0041843 -0.0075975 -0.009545 0.002744 0.0033947 0.0018956 0.0011738 -0.0046398 -0.006111 -0.0087199 -0.009998 0.0055566 0.003568 0.0084932 0.0045294 -0.0053881 -0.007417 -0.0037534 0.0064703 0.0022679 0.0024945 0.0036699 -0.00059076 0.0057109 0.0067203 -0.0035273 -0.00059388 -0.0085158 0.0074177 -0.0027701 -0.0086595 -0.0017093 0.0044978 -0.0076699 0.0084246 0.0050501 0.0094448 1.0202e-05 -0.0086705 0.00045598 -0.0086105 -0.0044814 0.0047435 0.0024494 0.00033922 -0.005091 0.0051622 0.0069152 -0.0028514 0.0052956 -0.0081478 -0.0088496 0.00089065 -0.0090544 0.0014238 0.0043425 -0.0032213 0.0044659 0.0077914 0.0029487 0.009129 -0.0077659 -0.0020131 -0.0047482 -0.0060531 -0.0052566 -0.0019505 0.0065685 0.0060606 0.0056962 -0.0014518 0.0085508 0.0022819 0.00050697 0.00036493 -0.0090127 0.0059391 -0.0079558 -0.001102 0.0057809 -0.0093675 0.0057971 -0.0015407 0.0063235 -0.0080342 -0.004353 0.00046453 -0.0058013 0.0078129 0.002723 0.0063986 
Vets. 0.0021742 -0.008936 0.004989 0.0095541 -0.0075806 0.0024902 0.0057337 0.003582 0.0094858 -0.0022022 -0.004421 0.0013297 0.0047342 0.0061926 0.0033944 0.006117 0.0027413 -0.0047912 0.0072531 -0.0042764 -0.0099552 -0.0020332 0.0066489 0.0011197 0.0039886 -0.0046969 -0.0026535 0.0026631 -0.0041205 -0.0066233 -0.001718 -0.0032844 -0.0046268 0.0029503 -0.0086779 -0.0051129 0.0089971 0.0054625 0.0068443 0.0091353 -0.0079815 0.001821 0.00063942 0.0084442 0.005913 0.0063366 -0.0046832 0.00095007 0.0037872 0.0083983 0.0042607 -0.0065476 -0.0093306 0.00084426 -0.0056021 -0.0035968 0.00794 -0.0025901 -0.0044311 0.0062621 -0.0094257 0.0019594 -0.0041815 0.0053326 -0.008405 -0.0032756 0.0032945 0.0024053 -0.0024559 -0.0065231 -0.0096799 0.0090535 0.006932 0.009456 -0.0065308 0.007635 0.0060663 -0.00068665 -0.00022835 -0.0077928 0.0066569 0.0078083 -0.0040602 -0.0075062 0.0044343 0.0014724 -0.003015 0.0088625 -0.0015456 -0.0090989 0.0053442 0.0090749 0.005243 0.001974 -0.0087644 -0.0055652 -0.002687 -0.0097196 -0.0072952 -0.0044458 
Military 0.0030386 0.0078879 -0.0032459 -0.0082115 0.0022304 0.0056166 -0.0097593 0.0024445 -0.0067581 -0.0053985 -0.0016897 0.0086565 -0.0015889 0.0079972 -0.0042118 0.0052198 0.0049327 0.0016702 0.009886 -0.005582 0.0085772 -0.0086148 0.0095892 -0.0003846 -0.00047676 -0.00474 0.0057358 -0.0036889 -0.007394 0.0014526 0.0094906 0.0075666 0.00081478 0.0083956 0.00047219 -0.0094111 -0.0046549 -0.0027504 -0.0088205 0.004296 0.0051737 0.0090053 -0.0028828 -0.00032956 0.0032169 -0.007788 0.0047007 0.0030374 0.00017782 -0.0086402 -0.0019553 0.0065103 0.0037031 -0.0058164 -0.0055746 -0.0036377 -0.0025777 -0.0075676 -0.00049226 -0.00085382 -0.0060986 -0.00034683 0.0042424 0.0010675 -0.008848 -0.0097962 0.0054705 5.6281e-05 0.00599 0.0034564 -0.0094796 -0.00065401 -1.588e-05 0.00063037 -0.0045724 0.004904 -0.0095645 0.0024491 0.0010146 0.0029641 0.00015747 -0.0048086 0.0021893 -0.0073521 0.0035709 0.0088201 0.00022282 8.1685e-05 -0.0042467 -0.0068216 0.0076131 -0.0047761 -0.0067515 -0.0052501 0.0091853 -0.0098794 0.0014163 0.0012258 0.0081832 -0.0061778 
has -0.002891 0.0065042 0.0080258 0.00681 -0.0083861 0.0067107 0.00017019 0.0028671 0.0081808 0.0041935 -0.00027643 -0.0035837 0.00014257 0.0016862 -0.0072706 0.0084683 0.0066163 0.0072268 -0.0068461 0.0066606 -0.0014865 0.0095696 -0.009565 -0.0018616 0.0009387 0.0040677 0.0060987 0.0081128 -0.008114 -0.0039195 0.0063395 -0.0008413 0.0097489 0.002229 0.0044531 0.0072031 0.0070674 0.0084946 -0.0062914 0.0048548 -0.0086846 0.00078843 -0.0097887 0.0022013 0.0063129 -0.00013835 0.0096864 -0.004484 -0.0061276 -0.0082677 0.009125 0.0092253 0.0043374 0.00871 -0.002456 -0.008998 -0.0046572 0.0082935 0.0078994 0.0020837 -0.0034189 3.3318e-05 -0.0061216 0.0054632 0.0043713 -0.0092823 0.0097614 0.00097501 0.0067223 0.0022298 0.0039836 -0.0031305 -0.0076965 -0.007961 0.0013471 -0.0038682 -0.00027579 -0.009295 -0.0024238 -0.0012927 -0.0028992 0.0037466 -0.002771 0.0019922 -0.009641 -0.00017679 0.0098288 -0.0031574 -0.00010355 -0.0075422 -0.0042344 -0.0087162 -0.0015157 -0.0079545 0.0050361 0.0036756 0.0006285 0.00046989 0.0051509 -0.0095529 
we -0.0052274 0.004957 -0.0022518 0.0084718 -0.0020884 0.0090059 -0.005696 -0.0054584 0.0039641 -0.0074647 -0.0012142 -0.0062832 0.0031665 0.0096952 -0.0081333 0.0079908 0.0074766 -0.0081581 -0.0079593 0.0041938 -0.0017855 0.0026833 -0.0063265 0.00068467 -0.0090957 -0.0050455 -0.0095594 0.0033828 0.0022159 -0.0043044 0.0055389 -0.0097004 0.0073063 0.0062011 0.0075955 -0.0091652 0.0077874 0.0071123 -0.0053556 0.0024816 -0.0082218 -0.0082114 -0.0024144 0.0049024 0.0027388 0.0081766 0.0061286 0.0030267 0.007845 -0.0099717 0.0091727 0.0049813 -0.0032578 -0.0039541 -0.0074046 -0.0052887 -0.004121 0.0043392 -0.0018817 0.0072031 0.0078314 0.0088787 -0.0040526 -0.0042074 -0.0043058 -0.0027295 -0.0070906 -0.0021101 -0.0071285 -0.0098561 0.0042947 0.0047404 -0.0024037 0.0014183 0.00069437 -0.0011021 -0.0015629 -0.0094708 -0.0043332 0.0061086 -6.0268e-05 -0.0054955 -0.0053877 0.0077273 0.0065 0.0091204 0.00086593 0.0072283 -0.0056654 0.008936 -0.0028304 -0.004073 0.0086326 -0.0027069 0.0032463 0.0061622 0.0099037 0.0055435 0.0057506 0.0075229 
this 0.0056459 0.0024819 -0.0093567 0.002065 0.0048325 0.0015965 -0.0045947 -0.0054733 0.0022243 0.0072805 -0.0076309 0.002408 -0.0015916 0.0012654 0.0021402 0.0080351 -0.0036626 0.0052329 0.0043685 0.0011392 0.0034004 0.0011989 0.00075879 -0.003834 0.0069278 -0.0011492 0.0059615 -0.0033572 -0.0064759 0.009448 -0.0018909 -0.00062687 0.0035424 0.0075459 -0.0036477 0.0050894 0.0019645 -0.00011183 -0.0027624 0.0025799 -0.002167 -0.0069358 0.0030992 -0.0061302 -0.00401 -0.009432 -0.0061648 -0.0032717 -0.0070343 0.00049676 0.0079768 -0.0045821 0.0060493 -0.0084978 0.004245 0.0079523 0.0098127 -0.0038913 0.0087154 -0.0035211 0.003766 -0.003051 -0.0031643 0.0081442 -0.0042321 0.0024875 0.0066913 -0.0027282 0.0092608 0.00959 -0.0065442 0.0056093 -0.0027767 0.0041435 -0.0078487 -0.0096555 -0.005727 0.006104 0.00016342 0.0040179 -0.0035886 -0.0025545 -0.0078598 -0.0064133 -0.0019239 0.0071119 0.0032125 0.0047099 -0.0047149 0.0043329 0.0099331 0.0011916 -3.7834e-05 -0.0033326 0.0060509 -0.0095903 -0.0035307 -0.0085135 0.00033904 0.0051745 
Mueller 0.0044862 -0.0052062 0.0032378 0.0074644 -0.0068531 -0.0088516 -0.0077899 -0.0025231 0.0082681 -0.0064228 -0.0053435 0.0089009 -0.0078536 -0.0086035 -0.0085289 0.0087002 0.0027024 -0.0074705 -0.0080189 0.0072621 0.0016613 0.0013936 -0.0005948 -0.0031364 0.0032265 0.0019906 0.0034419 -0.0098321 -0.0069547 3.0167e-06 0.0084631 -0.0039737 -0.0082115 -0.0060256 -0.009765 -0.0043768 -0.0083727 -0.0093268 0.0033046 0.0015605 -0.0069597 0.0045688 0.0031501 -0.0012254 -0.0094209 0.0068308 -0.0044287 -0.0082055 -0.0051897 -0.0064073 -0.0046465 -0.0034899 0.0089133 0.0083101 0.0030767 0.0083236 -0.0066805 -0.00034771 0.00083585 0.0013959 0.0066993 -0.0095273 0.00035531 0.0023141 -0.0099215 -0.0095825 0.0079893 0.0034121 0.0026426 -0.0041391 -0.00831 0.0043463 0.00025502 0.0073314 0.0032638 0.0025504 0.0004343 0.0051293 -0.0026369 -0.00044535 -0.0040912 -0.0075209 -0.00072217 -8.3085e-05 -0.0057687 0.0054226 -0.0041582 -0.002003 -0.0072719 -0.0086455 -0.0087789 -0.0069834 -0.0085399 0.0037847 0.00062034 -0.0093638 -0.0051204 -0.00016138 -0.0072979 -0.0010748 
Crime, 0.0010581 -0.00095546 0.002082 0.008929 0.0035944 0.0043887 -0.00072988 -0.0062668 0.00028643 0.0024828 0.0035118 0.00099129 -0.0030044 -0.0037336 0.0011739 -0.0072367 -0.0051403 0.0096224 0.0022092 -0.0036203 -0.0025211 -0.0040302 -0.0064153 0.0088289 -0.0074045 -0.0056866 -0.0058471 -0.009801 -0.0012544 -0.0071858 -0.0092036 0.00073622 0.0072968 0.0063672 -0.0055049 0.00090379 0.00034767 -0.001403 -0.00039244 0.0063204 -0.001853 0.006821 -0.0042151 0.0063316 -0.0095819 -0.001441 0.0010405 0.0052486 0.0099827 0.0089473 -0.00933 0.0030657 0.0010674 0.0064047 0.0062967 -0.0079162 0.00037508 -0.0081037 0.0064995 -0.00062886 0.0061421 -0.0048259 0.0089004 -0.001125 0.0075259 -0.0028029 -0.0012299 0.0083145 -0.0054511 0.0015194 -0.0093484 -0.0095318 0.0082823 -0.00055243 0.0012127 0.0030829 0.0083533 -0.0093583 0.00975 0.0029635 -0.0016609 0.001902 0.008388 0.0019181 0.0032703 -0.00037255 0.0081174 0.005889 -0.0051405 -0.0022654 0.0042633 -0.0089702 0.0090102 0.0081834 -0.00077256 -0.0086 0.0011614 0.0014109 -0.0043078 0.0067803 
never -0.0056401 -0.0085074 -0.002185 0.0011473 0.0087845 0.0080315 0.0076571 0.00079926 0.0018824 0.0094228 -0.003303 0.0052331 -0.0075064 -0.0020617 -0.0092853 -0.0084407 0.00060156 -0.0090805 0.00099067 -0.0049924 -0.0028982 0.0036405 0.0040316 -0.00025837 0.004345 0.005652 -0.0031239 0.0016241 -0.0022945 0.0088715 -0.0012485 0.0080575 -0.0091001 -0.0051781 0.0082947 -0.0043395 -0.0070695 -0.0057636 0.0068312 -0.0075649 -0.008534 -0.0006699 -0.0026871 0.0076465 0.0008348 -0.0022524 -0.0060266 -0.0061683 0.0072636 0.004863 0.0089486 -0.0072031 0.0020211 0.0045457 -0.0086156 -0.0077199 -0.0083261 0.0011576 -0.0069773 0.0096604 0.0097048 0.0088802 -0.0031784 -0.0089685 -0.0013841 0.0030809 -0.0013564 -0.0065305 -0.0092851 0.00871 0.0095438 -0.0059818 -0.0087267 -0.0018338 -0.00343 0.0097373 0.0083433 -0.0063866 -0.0092726 0.006811 0.009015 0.008989 0.0078358 0.0090716 0.0040851 1.6513e-05 -0.0083466 -0.0022551 0.0091766 -0.0078809 -0.004833 -0.0014577 0.0028194 0.0091426 0.005789 0.0021405 -0.0097619 0.0029734 0.0030722 -0.0068038 
Very -0.0026324 0.0098845 0.0080053 0.005255 -0.0032383 -0.0059338 -0.0020503 0.0066457 -0.0043874 0.0021446 -0.0018163 0.0030085 0.0013218 -0.0042928 0.0051076 0.0042673 0.0072652 -0.0014636 -0.00017234 0.00071523 0.002024 0.0041354 -0.0043815 -0.0017931 0.0007749 -0.0054572 0.0050592 0.0027892 -0.00012667 0.003954 8.6036e-05 0.00079661 0.008926 0.0042807 0.0035585 -0.0068737 -0.0022119 -0.0050767 0.00073122 -0.0097748 0.0078849 0.00668 -0.0014952 -0.0029814 -0.0045056 -7.607e-05 0.0076778 -0.00085011 0.0040201 0.0026249 0.0076677 -0.0072761 0.0090042 0.0065076 -0.0044285 0.0070285 -0.0056248 -0.0082588 0.0026745 0.0010217 0.0045223 0.0021783 -0.009519 0.0093924 0.007989 -0.0073792 -0.0054199 0.0051958 -0.0053856 -0.0062815 0.0046615 0.0099023 -0.0084202 0.0047435 -0.0045919 -0.0011358 0.0091922 0.0073908 -0.0063209 0.0057923 -0.0071898 -0.0062626 -0.0004259 0.0041048 0.0036788 -0.00068435 0.0027075 0.00040953 -0.0089173 0.0095079 -0.00014915 -0.00018913 0.0085333 0.0042687 -0.008196 0.0070053 -0.0092289 -0.0094791 0.0067376 -0.0092666 
Amendment. -0.0019878 0.0089343 -0.0069925 -0.007385 -0.0033319 0.0067549 0.0018765 0.0011412 1.0028e-05 0.0030812 0.0040574 0.0070919 -0.0079427 0.0031094 0.0070588 -0.0058193 -0.0041087 -0.00070136 0.003765 -0.00063793 -0.0078147 0.0022303 0.0044722 0.0056117 0.00022928 -0.0025209 0.0090134 0.00020309 -4.5302e-05 0.0077496 -0.0072865 0.0099756 0.0005169 -0.0055858 0.0084943 0.0023038 -0.0029847 -5.6903e-05 0.0040576 -0.0031348 0.005093 0.0049067 0.0020706 0.0082073 0.0015868 -0.005329 -0.0047454 0.0046071 -0.004146 -0.0032098 0.0043354 0.0043085 -0.0047099 -0.001972 -0.0071465 -0.00029461 -0.0086061 0.0023888 -0.0037303 0.0069299 0.0032944 -0.0069415 0.0041949 -0.00080533 -0.0093948 0.0056785 0.0052366 -0.007516 -0.00094675 0.0038126 0.0036103 -0.0089904 -0.0056945 0.0024009 0.0037333 -0.0046434 -0.0052498 0.0090993 -0.0078544 -0.0089558 -0.0045801 0.0047277 0.0015389 0.0014998 0.0066581 -0.00021533 0.0095934 0.0059364 0.0043717 -0.0097385 0.0088904 -0.00062125 -0.0015998 0.0066888 -0.0048412 0.0094493 0.0059668 -0.0093284 0.0055836 0.0040389 
Loves -0.0036619 -0.0098256 0.0069582 -0.0050221 -0.0059624 -0.0090591 -0.0059763 -0.0035694 -0.0084296 0.0048746 0.0021727 -0.0087846 0.0084737 0.0026886 0.0059402 -0.0093262 -0.0056858 0.0056087 -0.0085196 0.0083273 -7.4646e-05 0.0074906 -0.0047262 -0.0070393 0.0028014 0.0013436 -0.0032089 0.0027203 0.0069936 -0.00012615 -0.0091459 0.0067074 0.0036988 0.0074949 0.0097639 0.00073133 0.0023347 0.0049229 0.0077066 0.0082166 -0.0037448 0.0015961 -0.0076736 -0.0038163 -0.00088645 -0.0049294 0.0026957 0.0041154 0.009166 -0.0039713 0.0077293 -0.0054467 0.00024463 -0.0041175 -0.0049568 0.0044247 -0.0031084 0.0024242 0.0073951 0.0056906 0.0078237 0.001829 -0.0026344 -0.0043753 0.0060554 0.0058006 0.0080496 0.00027191 -0.0070493 -0.0050418 0.0038377 -0.0016218 0.0054272 0.00045951 0.00071437 0.00016708 0.0025909 -0.0075744 0.0095995 -0.0089934 -0.0070085 -0.0068918 0.0036907 -0.0038212 0.0080817 -0.0024765 -0.0085514 0.0020128 -0.0062572 -0.0062993 -0.0044328 -0.0064494 0.0062786 -0.0081749 -0.00436 0.0094002 -0.0039241 -0.0081958 -0.0045045 -0.0098457 
total -0.0060925 -0.0093458 -0.0041989 -0.0020533 -0.0090849 -0.0069906 0.005322 0.0039885 0.0086361 -0.0040005 -0.0033661 -0.00028913 -0.0053604 -0.0060701 -0.0052871 -0.0056742 -0.0088613 -1.712e-05 -0.0068724 -0.0044056 -0.0071843 -0.0070737 -0.0075075 0.0053647 -3.2454e-05 -0.005085 0.005634 -0.00234 -0.0022526 0.0089102 0.0080165 -0.0046258 -0.00071315 -0.0062173 -0.0041687 0.002255 -0.0061119 -0.0070258 0.0041717 0.0088564 0.0013732 -0.004308 0.009493 -0.006345 0.003444 -0.0023075 0.0034834 -0.009482 -0.0043184 -0.0083483 0.0090478 0.0013663 -0.00061209 -0.0084771 -0.001814 -0.0014948 -0.0002752 0.0041792 0.006178 -0.00094611 -0.0097909 -0.00070502 -0.0050355 0.0029761 -0.0093445 0.0030686 -0.0050126 0.007403 -0.0091944 -0.0078836 -0.0015257 0.009773 0.0085842 -0.00012612 0.002764 -0.0066832 -0.0012058 -0.0014093 0.0020215 -0.0073408 0.0082482 0.0035827 -0.0068721 0.0082957 0.0038932 0.0059841 -0.0050263 0.0054681 -0.0099445 0.0065306 0.0049884 -0.0060504 -0.0014736 -0.0099423 -0.0040089 0.0081245 -0.0043213 0.0095523 -0.0092983 0.0093413 
complete 0.0066386 -0.0039998 -0.0074359 0.0066209 0.007777 0.0034233 0.0032552 -0.0057496 -0.0069666 -0.00614 0.0010119 0.0060943 -0.0085047 -0.003282 -0.0082808 0.0066262 -0.0090935 0.0039379 0.005567 0.009354 0.0034201 0.008123 -0.003836 -0.0088975 -0.0067769 0.0034078 0.0087417 0.0052184 0.0093139 0.0016874 0.0090523 0.0060514 0.0011618 -0.0042585 0.00017339 0.0039356 0.0039509 0.00010636 0.002957 -0.0067282 0.0016221 0.0034759 -0.0011353 0.0064861 -0.0086348 -0.0081021 -0.0034859 -0.0048063 -0.003719 -0.008884 0.00049778 0.00088254 -0.0061605 -0.0034331 0.0063583 -0.0099232 -0.0032339 0.0099436 -0.0010942 0.002704 0.0067463 -0.0042861 0.0037208 -0.001724 0.0049575 0.0028498 -0.0060607 0.0010318 0.0076813 -0.0030439 0.0078023 0.0036403 0.0085263 0.0050932 -0.00961 -0.008989 0.009098 0.0042693 0.0070348 0.0055507 -0.0028967 0.00086334 0.0057844 0.0071633 -0.0056653 0.004835 0.0019443 -0.0013168 0.0066856 0.0011646 -0.0096852 -0.0090613 -0.0068874 -0.0089974 0.0033213 -0.0046863 0.00016376 -0.0056172 0.0039642 -0.0022527 
Endorsement! 9.4606e-05 -0.0028304 0.0041657 0.00072873 0.0050816 0.0015455 0.0064117 -0.0078569 -0.0068689 0.0033198 0.0078609 -0.00058878 -0.0036269 0.0011764 0.0096575 0.00017749 -0.0078581 -0.0053879 -0.0064151 -0.0048053 0.0066543 0.0043961 -0.0032598 -0.0054826 0.0048749 0.0050427 -0.0043473 -0.0080116 0.0049435 0.0036398 0.0071367 0.0039113 -0.0077131 0.0053619 -0.0058589 -0.0081074 -0.0072111 0.0099214 0.0027927 -0.0098564 -0.0054198 -0.0063526 0.0014795 0.0033712 -0.0049431 0.0025527 0.0043257 0.007139 0.00048884 5.9485e-05 0.0098792 -0.0030938 -0.0032915 -0.00023651 -0.0071825 0.0067159 -0.004577 -0.0042583 0.0068231 0.0086233 -0.0085968 -0.0032484 -0.00068538 0.0028634 -0.0040036 -0.0011971 0.0055498 0.0014531 -0.0095 0.0033954 -0.0068998 -0.0040341 0.0094154 0.0028082 -0.0069076 -0.006042 0.0024789 -0.0082422 0.0097787 -0.0099522 0.0011862 -0.006554 -0.0022139 -0.0092617 -0.006089 -0.0075599 -0.0035252 0.0018614 0.0075065 -0.0048446 -0.0071171 -0.0045746 0.0073612 0.0031204 -0.0039686 -0.0050236 -0.0049688 0.0088364 -0.0076361 -0.0036066 
Congressman 0.0082995 -0.0066938 -0.00060051 -0.0042802 0.0085702 -0.0032812 -4.122e-05 0.0077382 -0.00066404 -0.0039012 0.00919 0.0079572 0.0077134 -0.0043094 0.0012436 0.0082122 0.008473 -0.0048214 0.0064246 -0.0044747 0.0021367 -0.00069104 0.0017434 0.0019746 -0.0083306 0.0014119 -0.00087018 -0.001216 0.0090567 0.0040107 -0.0049231 0.0027068 -0.0096752 0.0076673 0.0011654 0.00067291 0.0037127 -0.0059289 -0.0069882 0.0096222 0.0042584 0.0016319 0.0076668 -0.0080102 -0.0065425 0.0061148 0.0066001 0.00082165 -0.0061933 0.0061265 0.00039937 -0.0031615 -0.0054989 0.0022455 -0.0086368 -0.0040731 0.0042785 0.0082633 0.0022244 0.0069187 -0.002059 0.0046997 -0.003422 -0.001024 0.0046445 0.001661 -0.0064686 0.0080689 0.0081387 -0.00037 -0.0076329 -0.0096732 0.0045215 -0.0030429 -0.0015657 -0.0098613 -0.0080306 0.0093327 0.0075829 0.0036748 0.00066384 -0.0079023 -0.0046109 -0.0028649 0.005906 0.0057359 -0.0003086 0.0038737 -0.0036209 -0.00036761 -0.0098169 -0.0043656 0.001129 -0.0010571 0.0026025 -0.0047977 -0.005336 0.0020146 -0.0070928 -0.0010578 
Witch 0.00673 -0.0053342 0.0044257 -0.0019595 0.0031365 0.008905 -0.0017375 0.0037788 -0.00094494 0.0036236 -0.0057365 0.00087939 0.0037618 0.0081861 0.004848 0.0086686 0.0055163 -0.0078743 -0.0039864 0.006553 -0.0012183 -0.0090768 -0.0044745 0.0045905 0.0067297 -0.0047566 -0.0064389 -0.0030353 0.004052 -0.0012837 0.0053639 -0.0072695 0.0025876 0.0081451 -0.0058936 -0.0062665 0.0078684 0.0022223 -0.0053427 -0.0086115 -0.0083874 0.0082384 -0.0043069 -0.005466 0.0064822 -0.0082159 -0.0085034 -0.0048562 0.008673 0.0067866 0.0055208 0.0087348 0.002197 -0.0030343 -0.0082603 0.0054386 -0.0070027 0.0052139 -0.0071656 -0.0009382 -0.00089183 -0.0042161 0.0045189 -0.001818 -0.006132 -0.0087272 0.008064 0.0080585 -0.0040103 -0.0039084 -0.0050213 -0.0094953 0.0031293 -0.0015783 0.0099086 0.0099792 0.0065485 -0.0034944 0.0048508 0.0017605 0.004972 -0.0078666 -0.0063518 0.0042297 -0.0068535 0.0047244 0.0087543 0.0033465 0.0030882 -0.0010649 -0.0054775 -0.0024518 0.0093413 -0.0018213 0.0054115 0.0056745 -0.0062218 0.0057578 -0.0068289 -0.0076204 
continues 0.0054764 -0.0080879 0.0080022 -0.0051979 0.0083446 0.0090145 -0.0044441 0.0066329 0.0052318 0.0098497 0.0055019 -0.0024596 0.00050026 -0.0022787 -0.0045749 0.0048639 0.006426 -0.0092802 -0.0083386 0.0067913 -0.0054009 -0.0055528 0.0063016 -0.0062239 -0.00062022 -0.0050976 0.001941 -0.0016658 -0.0080609 0.0031744 0.0050806 0.002593 -0.0055013 -0.0020552 0.001185 0.0027151 -0.0073771 -0.0085614 -0.0046512 0.0019763 -0.0017881 -0.0071549 -0.0017894 -0.0060063 -0.0024438 0.0094548 0.0038308 -0.0013669 0.0078708 0.0090814 0.0099053 0.007625 -0.005394 0.0069526 0.0019411 -0.002869 -0.0067975 3.9877e-05 -0.0031863 -0.0097064 0.0040282 0.0029027 0.0088125 -0.0097635 0.0078264 -0.0079116 -0.0088824 0.0043565 9.2929e-05 -0.0088564 0.0023016 -0.0020992 -0.0084484 0.0059079 0.00083769 0.0072053 -0.0025666 -0.0074879 0.0036225 0.0091687 0.0082103 0.0079609 -0.00066574 -0.008969 -0.004306 -0.0085544 0.0093791 -0.0081225 -0.0021482 -0.0031435 0.0010968 -0.0083881 -0.0046518 0.0035736 0.0025873 -0.0019195 0.0078304 -0.0040792 -0.0092018 0.0060044 
who 0.0016646 0.0049632 0.0051155 -0.0020691 -0.006127 0.0093648 0.0029828 0.0029513 -0.0037306 0.0012308 -0.00051565 0.0068697 -0.010003 0.0030791 -0.0094906 0.0063832 0.0073844 -0.0036095 -0.0035126 -0.0061306 0.0076222 0.0055238 -0.0053888 0.0023325 0.0085227 2.1138e-05 -0.0085858 -0.0045633 5.07e-05 -0.0074357 0.00068676 -0.0062157 4.807e-06 -0.0039848 -0.0052522 -0.0016095 0.0061903 0.0049948 -0.0067288 -0.00047904 0.0057315 0.0067676 -0.0014922 0.0079301 0.0052184 0.0063527 -0.0085509 -0.0062612 -0.0083891 0.00072763 0.0052257 -0.00994 -0.0066465 0.00090589 0.0013595 -0.0038216 -0.0062614 0.002154 0.0056159 0.004481 0.005449 0.0090663 0.0030607 0.00081286 0.0057757 0.00016067 0.0041644 -0.0036742 0.0062391 -0.0038852 -0.00016447 -0.0051449 -0.0069273 0.0063846 -0.00095444 0.0067301 0.0059411 -0.0067032 0.0045228 0.0010643 -0.0090217 -0.0079935 -0.0063734 -0.0063887 0.0054206 -0.0013565 0.0085704 -0.0044543 -0.0058482 0.004174 -0.0082514 1.3906e-05 0.0013953 -0.00067921 0.0030122 -0.0035048 -0.0025118 0.0091049 0.0077287 0.0029884 
in 0.00038955 0.001136 -0.0081927 -0.0085922 0.00089085 0.0022166 -0.0004017 -0.0037483 0.0043871 -0.0048645 0.0054883 0.0073258 -0.00076023 0.0054259 -0.0090746 -0.0057084 -0.0087316 -0.0089162 -0.00013513 0.0066622 0.0079494 0.00086063 0.0084084 -0.0034612 -0.001882 -0.0099894 -0.0019703 0.0013718 -0.00081383 0.0058065 -0.0075299 0.0078834 -0.0084615 0.003573 -0.0030739 -0.0046975 0.0028464 0.0018246 -0.007852 0.0050105 -0.0010251 -0.0084953 0.0052247 -0.0023403 -0.0023735 -0.0051734 0.0040617 -0.0010958 0.00063008 0.008974 -0.0042893 -0.0051027 0.0091846 -0.0098768 -0.0098568 -0.0050415 0.001904 0.0055882 -0.0092004 -0.0027468 0.0043639 0.0047768 -0.00052763 -0.0040807 -0.0037459 0.0088316 -0.0019083 -0.001196 0.0038725 -0.0015646 0.0054879 0.009697 -0.00045078 0.0050681 -0.004889 -0.0026156 0.002797 -0.0033758 -0.0049489 -0.0096732 0.0065749 0.0032923 0.004421 -0.0057739 0.0045983 0.0019132 0.0013981 -0.0092056 -0.002111 0.0028622 0.0049889 -0.0034225 0.0096066 -0.0010356 -0.0028707 0.0010253 -0.0074529 0.0026339 -0.0029704 -0.0086406 
by -0.0044737 -0.0018686 0.0041592 -0.0069036 0.007754 0.0052228 -0.0046991 -0.0021757 0.0010835 0.0083677 0.0085477 0.0086971 -0.0077816 -0.0037235 0.0072926 -0.0051457 -0.0008343 0.0037927 -0.0050404 -0.0055158 0.0087605 -0.0043665 0.001999 -0.0077032 0.000827 0.0050193 0.006496 0.0096763 -0.0029056 0.0099462 0.0036033 0.0097757 -0.0056186 0.0091049 0.0031579 0.0013581 0.0090905 0.0059176 -0.007045 -0.0093638 -0.003469 0.0073805 -0.00712 -0.0018303 0.0075255 -0.00051891 0.0023901 0.0041477 0.00052369 -0.00022333 -0.0065861 0.0050811 -0.0026574 -0.0030548 0.003538 0.0042064 0.0099039 -0.005288 0.0098143 -0.0022035 -0.0097584 0.0053271 0.0046608 0.0027428 0.0072283 -0.0059974 -0.0017307 0.0055051 0.0079979 -0.0082479 0.00041701 -0.0058421 -0.0038413 -0.0024599 -0.0052612 -0.009019 -0.0088164 0.0050534 0.00049964 0.0052706 0.0032893 0.0055533 -0.0028996 -0.007769 0.0082027 -0.0059358 0.0083104 0.0055933 -0.0077155 0.0028942 -0.0090107 0.002731 -0.0031469 0.0075607 -0.0050267 -0.0096967 -0.0019819 -0.001315 0.009097 0.0034597 
17 0.0096067 -0.0020048 -0.00015625 0.0047571 0.0016911 0.0043793 0.0026311 0.0039866 0.0073207 -0.00364 0.0038557 0.0062774 -0.0069321 0.0056933 -0.0069108 0.0044803 -0.0028202 0.0056918 0.0014098 0.0094874 0.002102 0.0062356 0.0010235 -0.0034472 -0.0083045 0.0066763 -0.0099078 0.002003 0.0023363 0.0033526 -0.0071167 0.0089532 -0.0026967 -0.00017493 -0.0017994 -0.0051554 0.0032361 -0.00969 -0.00031574 0.0073992 -0.0060293 -0.007399 0.0089652 0.0033065 -0.0098739 -0.0036533 -0.0055152 0.00064145 -0.0081151 0.0022182 0.0048053 -0.008208 0.0052059 0.0033443 -0.00057549 -0.0098775 -0.0035385 0.0033156 -0.0048725 0.0028591 0.0021156 0.0036357 -0.00473 -0.0079477 -0.0080132 -0.0025648 -0.0040898 0.0041615 0.0065016 0.0069567 0.0015208 0.0058264 0.0030463 0.0048034 -0.0097752 -0.0091071 0.0099897 0.0089695 0.0010854 0.0019241 -0.0092481 -0.0050024 -0.0058385 0.0034024 -0.0015984 0.0097377 0.0063021 -0.0077181 0.0012505 -0.0060157 -0.0012124 -0.0074082 -0.0037132 -0.0054146 0.0048862 -0.0080636 -0.0054316 -0.00033554 0.0029271 0.0076364 
Angry 0.00022045 -8.4516e-06 -0.0007553 -0.003804 0.0082261 -0.0069206 0.0030843 0.0078203 -0.0062835 -0.0035704 -0.0092684 0.0084936 0.0015935 -0.0094171 0.0090805 -0.0092241 -0.0058297 -0.0095159 0.0061581 0.0055565 0.0070581 0.00095615 0.0032739 0.0088518 0.0016733 -0.0036477 0.0026614 -0.0033605 0.0067303 -0.008086 0.00991 0.0048176 -8.4548e-05 0.0038525 -0.0040769 -0.0025421 -0.00016903 -0.0040553 0.0012937 0.0026288 0.0015834 -0.0032854 -0.0014334 -0.0066275 0.003588 0.0010667 0.0024372 -0.0066762 0.0098982 0.0078294 -0.0082423 0.0012131 -0.0051059 -0.0070213 0.0057625 -0.0099818 0.0019931 0.0075056 -0.00040704 -0.00058704 0.00034664 -0.0077569 0.0098526 -0.0072528 0.00072479 0.0038948 0.0028085 -0.0073231 0.0070067 -0.0071687 -0.0072216 -0.0081232 -8.4405e-05 0.0079679 -0.0099349 0.001038 -0.0019457 0.005726 -0.0059888 0.0061873 0.0058503 -0.0062045 -0.003537 -0.00017261 -0.0054835 -0.0069889 -0.0050638 -0.0027975 -0.0076773 0.0052346 0.001358 -0.0072286 0.0069728 -0.0076413 -0.0041718 0.0027318 -0.0030733 -0.0083508 -0.0089567 -0.0012803 
country. -0.0089139 0.00090059 0.0074858 0.0022257 0.0021068 0.0085514 -0.0047573 -0.0037036 0.0098053 -0.00058109 0.004758 -0.00081878 0.0057388 -0.00075329 -0.0095439 0.005879 -0.0018535 -0.0090299 0.0066144 0.00064833 -0.0023217 0.00916 0.0068458 -0.0047495 -0.0085969 0.0079733 0.0081252 0.0028867 -0.0094635 -0.0024019 0.0075622 0.0055349 -0.0059145 -0.0085524 0.0008104 1.7352e-07 0.0070815 -0.0014381 0.0036497 -0.0080211 -0.00095672 -0.0041002 -0.0050493 -0.0060347 0.004957 -0.0073729 0.0099728 0.0045491 -0.0085568 -0.0015087 -0.0055628 -0.0050317 -0.00124 0.0089891 -0.00019542 0.0022112 -0.0083742 -0.0085342 0.0077089 -0.0099332 -0.0090827 -0.0036858 -0.005102 0.004055 -0.0082778 0.00019385 -0.0031873 -0.0025678 0.0047796 -0.0061958 0.0087993 0.00081218 0.0036736 0.0028009 -0.0082132 -0.0089594 -0.0022533 -0.0086494 0.0066818 0.0029817 0.007625 0.0088697 0.0064546 -0.0077251 -0.0073104 0.00186 -0.0082836 0.001979 6.534e-05 0.0099585 0.0041802 -0.0059449 -0.0030441 -0.0095377 0.0036005 0.0028309 -0.0008748 0.0064858 0.0071553 0.0034589 
under -0.0024086 -0.0010822 0.0019291 0.0020547 0.00030849 0.0057006 -0.00508 -0.0094604 -0.0083859 -0.00086229 0.00090247 -0.0090624 -0.00083942 -0.0073315 -0.00068425 -0.0099829 -0.0068793 0.0013684 0.0049108 0.0027973 -0.0015674 -0.00421 0.0058322 0.0010107 0.0079304 -0.006514 -0.0057793 -0.0090221 0.0066401 -0.0094504 -0.0038999 -0.0072328 -0.0084945 -0.0061656 -0.00788 0.00069497 0.0019518 -0.0083846 -0.0051487 0.0005718 -0.0060462 -0.0035969 -0.0099814 0.009449 -0.0037176 -0.0086624 0.0098134 -0.00080714 0.0028228 0.0019352 0.0074494 -0.0066788 0.0083294 -0.0017077 -0.0080094 -0.0070402 0.0039335 0.0080714 -0.0082473 -0.0020144 -0.0099905 0.0022189 -0.00030789 0.006158 -0.0074551 0.0098324 -0.0082592 0.0063646 -0.0056147 0.0047784 -0.0029699 -0.0031618 0.0028136 -0.0066679 -0.00079631 -0.0073305 0.0070442 0.0068758 -0.0051643 0.0077325 -0.0014649 -0.0060125 -0.0030751 -0.0096829 -0.0063387 -0.0084391 -0.0099356 0.0041813 0.0091981 -0.0068447 0.0059281 -0.0081137 0.009742 -0.0059944 0.0063668 -0.0073464 -0.0068137 -0.0091775 -0.0056266 -0.0046647 
Trump -0.0060756 -0.0088165 0.0020302 -0.0056812 -0.0061875 -0.0061445 0.00060558 -0.0072922 0.002551 0.0078818 0.0029414 -0.0041364 0.0082957 0.0069843 -0.0069778 -0.0021342 0.0054926 -0.0037527 0.0056328 -0.0066022 0.0097375 0.002162 -0.0019648 0.0048798 -0.0067597 0.0056867 0.00063563 0.0016846 -0.0078917 -0.0025205 0.0075446 -0.0069184 -0.007309 0.004594 0.008438 -0.0086347 0.0021944 0.003783 -0.0099557 -0.0074882 -0.0097178 -0.0020684 0.0059094 0.0026465 -0.009647 -0.0079932 -0.0050983 0.0013318 0.0083171 0.0040424 -0.006995 0.0051814 -0.0012166 0.0097395 0.004454 -0.0084273 -0.0063575 0.00040236 -0.00020005 -0.0083224 -0.0011682 0.003446 -0.0032445 0.0053702 -0.0043514 -0.00032997 0.0097925 -0.00068847 0.0048457 -0.0053551 -0.0095637 0.0057797 0.0038422 -0.0038016 -0.0088189 -0.0031543 -0.004253 0.0033693 -0.0039591 -0.0064988 0.00081545 0.0068388 -0.0039737 0.0034855 -0.0010271 -0.0055791 -0.0031091 -0.0063834 0.0063289 -0.0026723 0.0039317 0.0080044 0.0040251 0.009682 0.00026875 -0.003256 -7.3358e-05 0.0085575 0.0034012 0.0036616 
it 0.0015909 -0.0064147 -0.0049705 0.0026559 -0.007379 -0.0064742 -0.00079658 0.0015559 0.0051594 0.0026935 0.0093703 -0.00031657 -0.0054389 0.0081626 0.0068354 -0.0062078 -0.003568 -0.0068311 -0.0059016 -0.0095258 -0.00345 0.0045737 -0.0080214 0.0014708 -0.0038441 -0.005129 -0.0042669 -0.0064623 -0.0018058 0.0095174 0.0068222 0.0098775 -0.008511 -0.0037603 -0.0033577 -0.00051698 -0.0030583 -0.0056585 0.0049538 0.0017027 -0.0041911 -0.0085105 -0.0040138 0.001524 0.0063751 0.005645 -0.0065702 -0.0048762 0.0032977 -0.0082271 -0.009776 0.0071863 -0.0077476 -0.0045305 0.0087729 -0.0075211 -0.0070916 -0.00025691 0.0018017 -0.0016884 0.0043149 -0.0028489 0.0077523 0.0099154 0.0076467 0.004955 0.0051672 -0.0013882 0.00084075 0.00015577 -0.0008689 0.008063 -0.0053731 0.00051663 -0.0084666 0.0045001 0.0058361 0.0066131 0.0068859 0.00083067 -0.0034355 0.0017307 0.0055055 0.0074119 0.0091151 -0.0097615 -0.0034023 -0.0066908 -0.0025063 -0.0043932 0.00055341 -5.5605e-05 0.0034542 0.005249 0.0082256 -0.0006084 -0.0089109 0.0046724 -0.0026722 3.5655e-05 
Economy 0.0080263 -0.0069903 -0.0043407 -0.0011733 -0.004363 -0.0095945 -0.0092757 0.0048719 -0.004414 -0.0050004 -0.0084628 -0.0034021 0.0065705 0.0054364 -0.0092654 0.0053867 -0.0029967 -0.007115 0.0014974 0.0065201 -0.0012473 0.0077039 0.0099075 0.0077193 -0.0099079 0.0015234 0.0074812 0.0058136 0.0041288 0.0084725 -0.006331 -0.0040691 -0.00020068 0.0034238 -0.0018313 0.0093285 -0.0047499 -0.0080039 -0.004863 -0.0043969 -0.0096737 -0.0073053 0.0022669 0.00082683 -0.0061659 -0.0079485 0.0013864 0.0049565 0.0078299 0.0086667 -0.0017151 -0.0077155 -0.00383 0.0062846 0.0055425 0.0091035 0.0096135 0.0049181 0.0015028 -0.003948 -0.00027252 0.00030899 -0.0029085 -0.0011624 0.0084642 0.003946 0.0084464 0.0019749 0.00081442 0.0097084 -0.0023368 0.0087763 -0.0067911 0.0048909 -0.0042051 0.00123 0.002585 -0.0069199 0.0066993 -0.0087938 -0.0020975 0.0047719 0.00034825 -0.0028851 0.008643 0.0062457 0.0035963 0.0033871 0.0020431 0.0087041 -0.00068992 -0.0028812 -0.0099185 0.0067943 0.0026866 0.003919 -0.0095129 -0.00050626 -0.0025126 0.0020923 
Borders, -0.0064208 0.0076584 0.0060524 -0.0047565 -0.007129 -0.0077382 -0.0056044 -0.0083582 0.0011364 0.00025937 0.0041284 0.0072049 0.0016772 0.0086963 -0.0012349 -0.0039499 -0.0062948 0.0049431 -0.00032979 -0.0094054 -0.0026102 -0.0097902 0.0032963 -0.0029546 -0.0086572 0.00079869 0.0043199 -0.0089872 0.0087148 0.0073974 -0.0073853 0.0038217 -0.0055164 0.0046584 0.0065834 0.0038223 0.0071747 -0.0064085 -0.0019198 -0.0046485 -0.0061816 -0.0036599 0.00076811 -0.00318 -0.0083254 0.00033662 -0.0053953 0.0097252 0.0037874 -0.0086537 -0.0032718 0.0004377 -0.0083643 -0.0091095 0.0019858 0.0074881 0.0064126 0.0090209 0.0097547 0.0060642 -0.0075518 9.2989e-05 -0.0067182 -0.0073067 0.009914 -0.0011388 -0.00043965 -0.0076084 0.0087124 -2.1269e-05 0.0055196 -0.0079351 0.00559 0.0034288 0.00042169 0.0095404 -0.0025049 -0.0029845 -0.0074996 -0.0028058 -0.0068388 -0.00029373 0.0072015 -0.007775 0.0003986 -0.0068781 0.0032688 -0.0079689 -4.4745e-06 0.0046407 0.0031919 0.0046598 -0.0074451 0.0030626 0.0088788 0.0068317 0.0075629 0.001494 0.0063242 0.0056502 
Border -0.0063395 0.0097954 -0.005511 0.0056704 0.0056928 -0.0064528 0.0041418 -0.0071304 -0.00057726 0.0032107 -0.0043083 -0.0029373 0.0056281 -0.0061904 -0.0052818 0.0037082 0.0016215 -0.002469 -0.0038491 -0.0067574 -0.008875 0.0038178 -0.0021867 -0.0023274 0.0063637 -0.0076513 0.0011195 0.0085489 -0.0026232 0.0084288 -0.0090703 -0.0062222 0.0025258 0.0010275 -0.0099121 -0.0074014 0.0087921 -0.007502 0.0032596 0.0013012 -0.0034448 0.0044246 0.0064877 0.006272 0.0013348 0.0062011 0.0070617 -0.0057119 -0.0024746 -0.004358 0.0021469 -0.00071023 0.0010075 -0.0068476 -0.0058735 0.004365 -0.0070121 0.006309 0.0087643 0.0066249 0.0015113 0.0040574 -0.0084203 -0.0095043 -0.0093482 0.00119 -0.0075424 0.0063566 -0.0088841 -0.0078782 -0.0093782 -0.0081503 0.0037651 -0.0072113 -0.0083564 0.004225 -0.0095562 0.0016062 0.0088981 0.0028089 -0.0055505 -0.0044519 -0.0045354 -0.00026006 -0.0090558 -0.0026572 0.0059085 0.00095695 0.0097597 0.009426 0.0072462 0.0032765 0.0027179 -0.0043997 0.0085664 0.007949 0.0029711 -0.0082499 -0.0021786 0.0033393 
being 0.0023338 -0.0050135 0.0045886 -0.0010074 0.00061883 -0.0053013 -0.0033771 0.0088434 -0.00091354 -0.00034009 -0.0066804 -0.00067175 -0.0031081 0.0014003 -0.0088144 0.0048674 -0.0029238 0.0067345 -0.002267 -0.0073252 0.0047084 -0.0065832 0.0024473 0.004891 -0.0034966 -0.006324 -0.0042697 0.0095496 0.0076684 -0.0035464 0.0074406 -0.0051202 -0.00047842 -0.0017189 0.005471 0.0078978 0.0095461 -0.0052523 -0.0011754 -0.0030133 0.0074477 0.0036416 -0.0034245 -0.0090086 -0.00070564 0.0023593 0.0076742 -0.00092173 0.006275 -0.0048324 -0.0090838 -0.0064138 0.0032743 -0.0054034 0.00026482 0.00010923 0.0064213 -0.0067657 0.0094099 -0.0093903 0.0019997 -0.0022074 0.0077433 0.0099088 0.0019805 0.0063151 -0.0055773 -0.0063522 0.0041451 0.006679 0.0035294 -0.0017132 -0.0075596 0.0036665 -0.0037161 0.0028781 -0.0073283 -0.0064673 -0.0095293 -0.00393 0.0093071 0.0013467 0.0067632 0.0062838 -0.009124 -0.0058789 -0.0024007 0.0010281 0.0066425 0.0093811 -0.0081723 0.0047912 0.0050636 0.0095476 0.0080084 -0.0097691 -0.0036073 0.00048917 -0.0063032 -0.0062783 
that 0.0013411 -0.0065893 0.0036205 0.0072999 0.0052664 0.0065588 -0.0050979 -0.0039622 0.0026347 0.0048767 0.0022394 -0.0049247 0.0055372 0.0027516 -0.0021173 -0.0040306 0.0098882 0.002278 -0.0053136 -0.0099169 -0.0039943 -0.0054768 0.0098322 -0.0059967 -0.0024689 0.0026002 -0.0073412 -0.003435 0.0036176 0.0082254 0.0046847 -0.0092511 0.004907 0.0029762 -0.0057217 0.0058567 -0.00075268 -0.0090187 0.0083492 0.0017916 0.0038068 -0.0027543 0.004881 0.0090626 0.0056093 -0.0099687 -0.0097043 -0.00058447 -0.0063748 0.0080553 0.0019146 -0.0084295 -0.0020882 0.0086304 -0.0071953 0.0087917 -0.0039398 -0.0087362 -0.0013991 0.0074368 0.0094943 -0.0063548 -0.0068439 0.0016787 0.0015266 -0.0026931 -0.0097141 0.0020666 -0.0074341 -0.0094437 -0.0010301 0.0022042 -0.0051242 0.0054303 -0.005377 0.0085492 0.0038351 -0.0067383 -0.0012868 -0.0079997 -0.00086636 -0.00027448 0.0035371 -0.0094537 -0.0095465 -0.0046639 -0.0078598 0.0058677 -0.0020306 0.00012764 -0.0030222 -0.00079509 -0.0067079 -0.0054437 0.0016739 0.00076078 -0.0048009 -0.0071111 0.0099733 -0.00069076 
hurricane -0.0033415 0.0050071 0.0014935 -0.0082655 -0.0096819 0.0077418 0.0045499 0.0079154 0.0055235 -0.0050792 0.0066823 -0.0038692 -0.00093912 -0.002379 0.0087686 -0.0048105 -0.0079853 -0.0078784 0.0016554 0.0035693 -0.007692 -0.0082768 0.0058688 0.0096625 0.0049014 -0.0050953 -0.0066579 0.0085659 0.0084385 0.0019649 -0.0037407 -0.0031009 0.00017167 0.0086199 -0.0049471 0.0018993 0.0041398 0.0057302 0.0081272 -0.0072565 0.0026231 0.0089091 -0.0054752 -0.0018273 0.0025727 -0.0077341 -0.004903 0.0030026 0.0057317 0.0074517 -0.0020653 0.0020026 0.002316 0.0029666 0.0043441 0.0057685 -0.008845 -0.0075883 -0.0070014 -0.0097932 0.0021487 -0.0078277 0.0089148 -0.0079971 -0.0032397 -0.0017361 -0.0052917 0.0040736 -0.0046789 -0.007537 0.0054862 0.0080713 0.007204 0.0067398 -0.0091195 0.0095851 -0.00021327 0.0052367 -0.0011544 -0.0079726 -0.0019044 -0.0018711 0.0025698 0.0051392 -0.0051776 0.0079774 0.0090367 -0.002439 -0.0015668 0.0093713 -0.0059374 -0.0043654 -0.0018861 0.0084745 0.00068845 0.0056599 -0.0020877 0.0091995 -0.0063142 0.0077302 
had 0.0022196 0.003589 -0.0067223 -0.004411 0.0010066 -0.00055428 0.0062692 0.0060585 0.0025877 -0.00011992 -0.0063715 -0.00081039 0.0063738 0.0059218 0.0078825 0.00039599 -0.0019823 -0.0098812 -0.0046559 0.00072803 -0.0034714 0.0010403 0.0074439 0.0038902 0.0016674 0.0043939 0.00094483 0.0088333 -0.002889 -0.0076983 0.0040328 -0.0044034 0.0043819 0.0099803 -0.0076294 -0.0013354 0.0081586 0.0085758 -0.0061093 -0.0026201 0.0010055 -0.0077816 0.0066494 -0.0075113 0.009457 -0.0066348 -0.0064179 0.0070087 -0.0064235 -0.0060345 0.00087831 -0.0055614 0.0071006 0.0040832 0.0094407 -0.0074074 0.0029647 -0.0066707 -0.0055994 0.0044483 0.0095416 -0.0047221 0.004154 -0.0077611 0.0025148 0.00079196 -0.0055724 0.0056734 0.0081599 -0.0068058 0.0056905 -0.0084343 0.0015416 -0.0095004 -0.009197 -0.00087366 0.0058616 -0.0038656 0.0065183 -0.0031569 1.2613e-05 -0.0026583 -0.00048542 -0.0061293 -0.0033032 0.006744 -0.0046283 -0.004843 -0.0079009 -0.0022576 -0.0022113 -0.0035549 0.0011421 0.0016874 -0.005804 -0.0098567 -0.0024133 0.0060588 -0.0040002 0.0007049 
if -0.0037949 0.0090464 0.00034403 -0.0025155 -0.0091562 -0.0080018 -0.0024041 0.0056714 0.0052606 -0.0013305 0.0041772 0.0056808 0.0021014 0.0017192 0.0074158 -0.0061363 0.0096593 -0.00062021 -0.0097786 0.0019211 -0.004027 -0.0017769 -0.0037303 0.0062883 -0.001418 0.0037406 0.0050826 0.0045601 -0.0013348 0.0026024 -0.0019465 0.008245 -0.0058558 -0.0087925 -0.0053987 -0.0082105 0.005476 -0.00068 0.0075439 0.0047656 -0.0077918 -0.00303 -0.0022268 -0.0089392 -0.000257 0.008312 0.0074823 -0.0098281 -0.0068102 -0.0038109 2.4766e-05 -0.0024558 0.0086707 -0.0067511 0.0077115 -0.004909 0.0060331 -0.0030323 0.0082243 -0.009783 0.0078538 0.0045116 0.005351 -0.00081923 0.0043676 0.0086742 -0.0092148 0.0099383 0.0088466 0.0001932 -0.0032392 0.0089259 0.0097034 0.00046138 0.0085613 0.0035071 0.00037107 -0.0051903 -0.0050768 -0.0081519 -0.0086464 0.0025973 -0.0074627 0.0094505 -0.0084541 -0.0027924 -0.00072733 -0.0058112 0.0036081 0.0059327 0.0061991 -0.0039311 -0.0056987 -0.00071021 0.0047174 0.0079802 -0.0012794 -0.0095386 -0.0017441 0.0024427 
you -0.00088069 -0.0015419 -0.0017344 -0.0011097 0.0025485 0.0024353 -0.0090855 -0.0041151 0.002497 0.0053656 0.0072105 0.0064425 0.0069655 -0.0055055 -0.0049882 -0.007521 0.0090397 0.0043534 -0.0075967 -0.006768 -0.00091706 -0.0026753 -0.0099909 -0.0071614 0.0094977 -0.0083985 0.0089533 0.00060413 0.0064655 0.00054536 0.00026722 0.0072112 0.0056725 0.0037107 0.0079189 0.000629 0.0071764 0.0037973 0.0092759 0.0090854 0.0029924 0.0092136 0.0067859 -0.0075902 0.0010876 -0.0010849 -0.0031255 -0.0017255 0.0099135 0.0097445 0.0042907 -0.0031624 -0.0011887 0.0033766 0.006633 0.0097363 6.9013e-05 -0.0093137 0.0088578 0.0085394 0.0043787 0.0034419 0.0030671 0.007834 5.4743e-05 -0.0016541 0.0062234 -0.0023934 0.0076486 -0.0030029 0.0078722 -0.0075336 -0.0090786 0.0059631 -0.0088961 0.00039833 -0.005462 -0.009982 -0.0085947 0.002037 0.0028279 -0.0023114 0.0094114 0.0089962 -0.0069399 -0.0002577 0.00063031 0.0078215 -0.0094256 0.0067732 0.0049255 -0.008199 -0.0075573 -0.0025139 -0.0045094 -0.0057569 0.00068721 0.0010686 0.004177 -0.0060773 
Russian -0.0071703 0.0034565 -0.00058477 0.0073424 -0.0012811 -0.008828 -0.0088106 0.005977 -0.0035216 -0.0086875 0.0095598 0.0083484 -0.005365 0.0089127 -0.0097317 -0.0072527 0.00053054 0.004385 -0.0004915 0.0078974 -0.0050323 -0.0089774 -0.0017495 0.007693 -0.00084247 -0.0092029 -0.00015439 -0.0071222 -0.0031002 -0.00061809 -0.0004314 -0.009664 0.0071191 0.00089119 -0.00347 0.0078624 -0.005388 0.0075151 0.00039836 0.0042526 -0.0098109 0.0048915 0.0062499 -0.0064685 0.0016652 -0.0084364 0.0067091 -0.0055498 -0.0080105 0.0084794 0.0015121 -0.0041676 0.0033371 0.0027768 0.0025384 0.0056924 -0.0097991 0.0089916 -0.0012081 -0.0012504 0.0014009 -0.001756 -0.000241 -0.00055061 0.0022344 0.0038799 0.0032014 0.0035758 0.0058481 -0.0015127 0.0067671 0.0054747 0.0089856 -0.0012792 0.0039619 0.0017061 0.0043521 -0.0071126 0.0017806 -0.0052986 0.0015334 0.0061996 0.0080162 0.0075619 0.0075444 -0.00043779 -0.0069682 -0.0015752 0.0057993 -0.0041003 0.0090921 -0.006286 0.0087778 0.00024119 -0.0081917 0.0050744 0.0021207 0.002867 -0.0061452 -0.0092583 
at 0.0052781 0.0019968 -0.0046 -0.0069981 -0.0054638 0.0043018 -0.00074686 -0.000295 -0.0067357 -0.0016386 0.0024474 0.0078316 0.0026415 0.0026646 0.0019073 -0.0063192 -0.0011599 0.0020088 0.0095608 -0.0031805 -0.0025771 -0.0095489 0.0069734 -0.0028733 -0.0030295 -0.0099335 -0.0018771 -0.0030542 0.008762 0.0067013 0.0053108 0.0044024 -0.00065741 0.0007451 0.0046787 0.0054227 0.0047951 0.0080846 -0.0099766 -0.0082296 0.0028065 0.0091468 -0.0088261 0.0056266 0.0029769 0.005918 0.0060084 0.0033816 0.006654 0.0089707 -0.0039214 -0.0065009 0.00055676 0.009392 -0.0015623 0.0031357 0.0051147 0.0082958 0.0064565 0.0034852 0.0061787 0.0065853 0.0066393 -0.0012893 0.0021105 0.0024261 9.3099e-05 0.0005285 -0.0079456 -0.0073284 0.0020795 -0.0038957 -0.002272 -0.0053662 -0.0069926 -0.00043256 0.0072212 -0.0020136 -0.0096117 -0.0085405 0.0034485 0.0010381 0.0017537 -0.0075046 -0.0090815 -0.0012382 0.005122 0.0063898 0.0081895 0.00073132 -0.0029167 -5.17e-05 0.0088942 -0.0084889 -0.0032526 -0.0080958 0.0044094 -0.0054404 0.0042164 0.0047546 
Second 0.0096809 -0.0050444 0.0047118 0.0082382 0.0054324 -0.0038327 0.0042978 0.0072404 0.0011081 0.0018203 -0.0041653 0.0097526 0.0055685 -0.0060383 0.0087537 0.0014768 -0.0058092 0.0080638 -0.0015215 0.0027828 0.0072696 -0.008709 0.0065786 0.00030301 0.0033169 -0.0052053 0.0049894 0.0050391 0.0043289 -0.0071772 0.00031353 -0.00058346 0.0054526 0.0096892 0.0047153 0.006217 0.0014245 -0.0032103 -0.0064009 -0.0060475 -8.5741e-05 0.0081776 0.0029191 -0.0084823 0.0070437 -0.0054207 0.0085727 0.0066807 0.0047949 0.0015175 -0.00074256 0.0038756 0.0022456 0.0056188 0.0056522 -0.0082323 0.009144 -0.0039942 -0.0023653 -0.0067886 -0.0014721 -0.0082645 0.0075156 0.00060616 -0.0040341 0.0081451 -0.0064804 0.00065559 0.0015324 -0.0089917 0.0055632 -0.0046156 -0.00044576 -0.0083278 0.0059426 -0.0031268 0.0011928 0.0026365 0.0020734 -0.0072539 0.0080565 -0.009188 0.0025528 -0.0055634 0.0072116 -0.0071172 0.0011606 -0.0028406 -0.0035855 -0.0062272 -0.0018924 -0.0072455 0.0054484 0.0037859 0.0099348 0.0054191 -0.0062723 -0.0054794 0.0013466 -0.00037888 
Border, -0.002083 0.0087385 -0.0044157 -0.0023383 -0.0051911 0.005645 -0.0060163 0.0095083 0.004091 -0.0085557 0.0036005 -0.0051226 -0.0084555 0.00098241 -0.002801 -0.0063564 0.0089563 -0.0083573 0.0030267 0.0088057 -0.0031604 -0.0067874 -0.0080633 0.007113 0.0065237 0.0073395 0.0028934 -0.0097199 0.0049271 -0.0036973 0.008596 -0.007289 -0.0099064 -0.0019884 -0.006823 -0.00032724 -0.0021332 0.0031188 -0.0062633 0.0076926 0.00597 -0.0085048 -0.0079714 -0.0077606 0.0074606 0.0096609 0.0074144 -0.0055333 -0.0042679 -0.0034698 -0.007994 0.00012261 -0.0043552 0.0098484 -0.0056026 -0.0012577 0.0069167 0.0028312 -0.0049755 -0.0085732 0.0067127 -0.0048649 -0.0079135 0.0013414 1.2051e-05 -0.0073956 0.0015291 -0.0040034 0.002712 -0.002815 -0.0054573 -0.0072319 0.0048111 -0.0072304 -0.0091327 0.00033623 0.0084276 -0.0051504 -0.0093316 0.0050789 0.0088005 -0.0097333 -0.0017574 0.00033641 0.0039274 0.0049427 0.0078981 0.0015108 -0.0067832 -0.00018411 0.0050399 0.0095566 -0.0019491 -0.0027842 0.004817 0.00052536 -0.0010604 0.0098018 -0.0076026 -0.001784 
Keith 0.0023508 0.0087428 0.0083058 0.0067428 0.0079341 -0.0088357 -7.7526e-06 -0.0054038 0.0066238 0.00022669 -0.0033487 0.0056277 -0.0095574 0.0098874 -0.002535 0.0044654 -0.0022183 0.0018964 0.008957 -0.00089282 -0.0083186 -0.0095547 0.00073469 -0.0089308 -0.0048165 0.0065409 -0.0050984 0.0089313 0.0045605 -0.0063752 -0.008786 0.0091546 -0.0050552 0.0085542 0.0022835 0.00059941 -0.0034811 -0.0084049 -0.0083208 0.0064839 -1.6929e-05 0.0063281 -0.0071021 -0.00478 -0.0058066 -0.00095698 -0.0002213 0.0048715 0.0097661 0.0017245 -0.0012398 -0.0028565 4.7533e-05 0.0092364 0.0074238 0.0010591 -0.0027607 0.0057044 -0.010001 0.0047103 0.0052459 0.0098369 -0.0063149 0.0020246 -0.0033009 0.009516 -0.0032853 -0.0037882 0.0083444 -0.0001909 0.0081758 -0.0026312 -0.0014175 0.0062288 0.0040985 0.0088891 0.0086266 -0.0050039 -0.0017063 2.9249e-05 -8.9116e-05 -0.0074503 -0.0027607 0.0014369 0.00011198 0.0093523 -0.0014293 0.0022352 -0.0099315 -0.00062382 -0.0085004 0.0085388 0.00030529 0.0091429 0.0014768 0.0022395 0.0036479 -0.0098472 0.0074661 -0.0082158 
hard 0.0029599 -0.0062542 0.0028793 -0.006387 -0.0096364 0.0081787 0.0076084 0.0045307 0.0074913 -0.0023449 -0.009813 -0.0060224 -0.00071314 -0.0013747 -0.0012059 -0.0054474 0.0086556 -0.0023212 0.0038552 0.0045039 -0.0097417 0.0023409 0.0098877 -0.0047344 -0.0026484 -0.0065372 -0.0071042 0.0040416 -0.0037876 0.0058314 0.0064183 0.0048632 0.0062161 0.0039167 -0.0059403 0.0088054 -0.003152 0.0081806 -0.0018744 -0.00813 0.0064778 0.0030684 -0.00096618 0.0095281 0.0062101 -0.0026623 -0.0010378 -0.0056396 0.0059356 -0.0087828 -0.0037877 0.0087538 0.007868 -0.0090727 0.008391 0.0068995 -0.00025075 -0.0012763 0.00098959 0.0036242 -0.0012092 -0.00845 -0.0091366 -0.0030995 -0.001667 -0.0012001 4.6575e-05 -0.0030348 0.0080407 -0.0060462 -0.0080469 0.0039405 -0.008422 0.0032526 0.0092513 0.006334 0.0027445 -0.0027237 0.0024438 -0.0017094 -0.0044205 -0.0022514 -0.0046086 0.0074046 0.0089885 -0.0024786 -0.0046518 0.0050485 0.0032057 0.0087672 0.0062029 0.0068533 0.0030901 -0.0072664 -0.0057075 0.0060711 -0.0042696 -0.0086481 -0.00031894 0.0054864 
ever, 0.0069444 -0.0066555 -0.0002522 -0.001545 0.00029661 -0.001362 -0.0057634 -0.00058103 -0.0011473 0.0070435 0.0063621 0.0059365 0.0047976 -0.0041567 -0.0075095 -0.0079396 0.009536 0.0036389 -0.0074233 -0.0037699 0.0064369 -0.009896 -0.0070254 0.0052221 0.0010848 0.006884 -0.004712 -0.00035124 -0.0037803 0.0007446 -0.0092097 -0.0059512 -0.0042771 -0.0077653 0.0081692 -0.00056139 -0.0036428 -0.0098515 -0.0063586 0.001169 -0.0069086 0.0085853 -0.00027708 -0.0088114 0.0024659 0.006567 -0.0076394 0.0066653 0.001318 -0.0080057 0.002153 0.0080001 -0.0034448 -2.8894e-05 0.0040387 0.0094682 -0.0098527 0.0077424 0.006647 0.0052476 -0.0048673 -0.0061822 0.0087331 0.0025181 -0.0075565 -0.0090473 0.0014794 0.0032015 0.0045945 -0.0079393 0.002937 -0.0030828 -0.0066341 0.0010442 0.0071344 -0.002293 0.0060811 0.00165 0.0025348 -0.0011607 -0.00033956 0.0096291 0.0057047 -0.0035855 -0.0064884 0.0028609 -0.0031974 0.0064269 0.0074925 -0.002364 0.0052838 0.0081459 0.0062295 -0.0068363 0.0067566 -0.0047933 0.00613 0.009856 -0.0026401 0.0048446 
Wall! 0.0040743 0.0074504 -0.0096979 0.0048053 0.0088348 -0.00041587 0.0054031 -0.0038095 -0.0020628 -0.0053559 0.0093135 0.0054329 0.00083697 0.0016093 0.0093289 0.0038029 0.004027 0.0060505 0.0055962 0.00080314 0.0028867 0.0019075 -0.0018293 0.0091855 -0.0081747 0.0049773 -0.0029531 0.0011052 -0.00705 0.001068 -0.002507 -0.0041409 0.0060224 -0.0069455 0.0077984 0.0066614 -0.00043281 0.0096334 0.00072102 0.0021915 -0.0072196 0.003615 -0.0016736 0.0075911 -0.0046797 -7.4167e-05 -0.0072627 0.0042332 -0.003521 -0.0062146 -0.0022212 0.0034859 -0.0046541 0.0097568 0.0006788 -0.0047411 0.0092805 -0.0051164 -0.0059616 0.0081892 -0.0046058 0.0029223 0.0051371 -0.0068901 0.0052104 0.0093774 -0.0086493 0.0060548 0.0028884 0.0078462 -0.00045843 -0.0063166 0.0097597 0.0039377 -0.0093425 0.0044459 -0.0056138 0.0042319 -0.00012319 0.0045162 0.0022367 0.0023615 0.0019753 -0.0079522 -0.0078844 0.0050907 0.00057736 -0.0092198 -0.0057059 -0.0088692 -0.0077479 -0.00038792 -0.0080361 0.0088551 -0.0054883 -0.0086709 0.0092061 -0.0026122 -0.0099871 -0.0042105 
While -0.0078105 0.0084778 -0.0035516 -0.009825 0.0082473 -0.0091687 -0.0019988 0.0040795 0.0037414 0.0056627 -0.003851 0.0033682 -0.0014085 -0.0094123 -0.006551 -0.00041342 -0.0055919 0.0050122 0.00020019 -0.0050701 0.00066395 -0.0069398 0.0030614 -0.00929 -0.0062089 0.0021431 0.0036983 0.0046912 -0.0017054 -0.0016582 -0.0065806 -0.0061181 -0.0078045 0.0028912 0.0015678 0.0018921 0.004429 0.0059453 -0.0039685 0.00025044 -0.001932 0.0044474 0.0044002 0.0034963 0.0042516 0.0034787 -0.0052182 0.0088506 -0.0082964 0.0039078 0.0048951 -0.0030258 -0.0048086 -0.0066618 -0.0071189 -0.0030752 -0.0078154 -0.0037145 0.0032867 0.0079582 0.0011146 0.0011955 -0.0060062 0.00086198 0.0091833 -0.0029356 -0.004056 0.009892 -0.0078145 -0.0045244 -0.0072997 -0.0017431 0.0020787 -0.0058506 0.0011792 0.0033615 -0.00097391 0.0098024 -0.0088578 -0.0033648 -0.0060357 -0.0026125 0.0095348 -0.0098617 -0.0051362 -0.006387 -0.0035683 -0.003362 -0.0058678 0.0082949 -0.00018177 0.0045893 0.0041367 0.0091156 -0.0061788 -0.0020885 0.0038423 0.0066938 0.0022447 0.0075877 
(@FEMA) 0.0012136 -0.00721 -0.0011919 -0.0092592 -0.0072088 -0.0051177 0.0077734 -0.0054215 0.0096955 -0.0099712 0.0022466 0.0060615 0.0030138 -0.0069885 -0.00098643 -0.0030917 -0.0092207 0.0068268 -0.0048461 0.0023551 -0.0033843 -0.0068553 0.0082658 0.0098809 -0.00055755 0.0067238 0.0076986 -0.0024195 0.0085215 0.0094685 0.0070974 -0.0012071 0.0054545 -0.0087139 0.0093868 -0.0055486 -0.0095217 0.0071368 -0.00011845 -0.004419 0.0089552 0.0092609 -0.0048057 0.004676 -0.0084001 -0.0054958 0.0045532 -0.0066784 0.004273 0.0062305 -0.0030554 -0.00057006 -0.0020609 0.007179 -0.0087992 0.0033696 -0.0099815 0.0013234 0.0013294 0.0092846 0.0071235 0.0092128 -0.0071927 -0.0082143 0.0026425 0.0097639 0.0089311 -0.0078027 0.009517 -0.0079811 0.00045721 0.0064021 0.001013 0.0010245 0.0037701 -0.006556 0.0030341 0.0079064 -0.0020032 0.0098642 0.0063442 -0.002194 -0.008818 -0.0062733 -0.0083793 -5.6066e-06 -0.00089917 -0.00051351 0.0034902 0.0042754 0.0078703 0.004098 -0.0034589 -0.0035706 -0.0037046 -0.0054788 -0.0033657 -0.0089684 0.0092215 -0.0082023 
(our) -0.0044523 0.00060764 -0.0056784 -0.0070041 -0.0051629 0.0040754 0.00010727 -0.0046394 0.0040624 0.00066146 0.003024 0.0098394 0.0098351 0.0027191 0.0087166 0.0055742 0.0082382 -0.0094187 -0.0037072 -0.0011993 0.0096753 0.0064547 -1.702e-05 0.0031441 -0.0038966 0.0097836 -0.0064138 0.0084202 0.0024946 0.0028115 -0.0052828 -0.0082458 -0.0028913 0.00031137 -0.00098932 -0.0023877 -0.0067971 0.00081973 0.0046247 0.009671 -0.0041 0.0083691 -0.007787 0.0083005 0.0028019 -0.0021731 -0.0045516 -0.0047649 0.0017721 0.0051803 -0.0037404 -0.00077956 4.2388e-06 0.0014469 -0.0088956 0.0066987 -0.0012766 -0.0031539 -0.0099742 -0.007051 0.0033898 0.002673 0.0015669 0.0069926 0.0079583 0.0076532 0.0064183 0.0073093 -0.0078586 -0.00086468 0.0084913 -4.5237e-05 0.0038997 -0.0088217 -0.0063308 0.0081457 -0.0012669 0.0010123 -0.00070535 -0.0095421 0.0048215 0.00062573 0.005954 -0.003675 -0.00032652 0.0058966 0.0045315 0.0099009 -0.0080793 0.0084736 -0.0053829 0.0096534 -0.003126 -0.00080908 -0.0063095 0.001693 0.00934 -0.0019416 0.0045757 -0.0038973 
poll -0.0010154 0.00058362 0.0018876 0.0071699 -0.0053255 0.0038509 0.0042847 -0.00042771 -0.0020167 -0.0053863 0.0031246 0.0030824 -0.0055823 0.0047386 -0.00059187 0.0098674 -0.0052186 -0.008008 0.0069631 -0.0011095 -0.0011726 -0.0050075 -0.0014329 -1.5798e-05 0.005466 0.0026852 0.004323 0.0072413 -0.0034494 -0.0060829 -0.001868 -0.0023916 0.0032785 -0.0017164 0.0074171 -0.0020495 -0.0045828 0.0034539 0.0040342 0.001231 0.0090052 0.0092808 0.0092978 0.0095725 -0.0067073 -0.001154 -0.0021638 0.0007376 0.0024376 0.0071275 -0.0060562 0.0061775 -0.0037897 0.0061241 -0.0057197 -0.0093016 -0.00062184 -0.0016347 0.0079907 0.0096187 -0.0021001 -0.0097506 0.0023534 -0.0071788 -0.007012 -0.0049853 -0.0063222 -0.0022806 -0.0022685 0.0058436 -0.00096017 0.0059329 -0.0034867 -0.007217 0.0077761 0.0060695 0.009521 -0.0043772 0.0060746 -0.0065523 -0.0046234 0.0090497 0.0039516 -0.0067116 -0.0061766 0.0069912 0.0099047 0.0071638 -0.0072854 0.0029361 -0.00022577 0.0081222 0.0051389 -0.0058823 -0.0081392 0.00087499 -0.0066515 -0.001408 0.0081841 0.0055539 
numbers -0.003398 -0.0074622 -0.0017844 0.0064687 0.0016653 0.0059787 -0.0096368 0.0039634 0.0012648 -0.0089104 -0.0080789 -0.0048696 0.00051702 0.0030139 0.0081087 0.0092923 0.0059086 0.0085262 -0.0083949 -0.0066839 -0.002848 -0.0046797 -0.0010695 -0.0097483 -0.00087349 -0.0068764 0.0016569 -0.0016901 -0.0083041 -0.0065916 0.0054262 -0.0011584 0.0044805 0.0078141 0.002276 0.0046371 -0.0062594 -0.0021712 0.0057589 -0.00088976 -0.0026782 -0.0056929 -0.0006201 0.0088991 0.0002077 0.0077458 0.0092657 -0.005084 0.0019089 -0.001571 -0.0067745 -0.0017574 -0.0099803 0.0067967 -0.0016365 -0.0048289 0.0073193 0.0052265 -0.0052643 0.0045203 0.0066946 -0.0063668 -0.004067 -0.0036344 -0.0063209 -0.0015106 -0.0076411 -0.0051587 0.0003211 0.0052081 0.0025137 -0.0017969 -0.0046956 0.00060245 0.00095384 -0.007315 0.00030559 0.0070517 0.0052683 -0.0015222 -0.0019909 -0.0070894 -0.00038271 0.0088914 -0.0064271 -0.0046815 0.002593 -0.0024622 0.0016002 0.0062285 0.0040633 0.0099633 -0.0031834 -0.0036986 -0.0041468 0.0099371 -0.006584 -0.0053751 0.0026477 -0.0072493 
good, 0.0029979 0.006366 0.0094514 -0.0036347 -0.0067755 0.0042445 0.0062739 -0.0016767 -0.0096813 -0.0044601 0.007532 0.0089775 0.0062916 0.0029445 -0.002094 -0.0072757 0.0015926 -0.0059913 0.0069457 0.0021314 -0.0042462 0.0041874 -0.0025097 -0.0036323 0.00017778 -0.0072853 -0.005206 -0.0074811 -0.0047415 -0.0020192 -0.0039601 0.0012202 -0.0051597 -0.0018345 0.0048461 -0.0085737 -0.0057273 -0.0078955 0.0095713 0.0064976 -0.0093607 -4.5919e-05 0.0065813 0.0002484 0.00086203 -0.0040509 0.00074614 -0.0016806 -0.0094639 -0.0081369 -0.0083225 0.0093148 0.00014479 0.0051549 -0.0084484 0.0003793 -0.0047029 -0.0064986 0.0026883 0.0018539 0.0092458 0.0040428 0.00094272 -0.0087949 -0.0034631 0.0090419 0.0040204 -0.001798 0.0039152 0.0087256 0.0081522 0.0093683 0.0083268 0.0016655 0.0078112 -0.0047826 0.00915 0.0020473 -0.0055654 -0.0044568 0.0097033 -0.0023209 0.0007884 0.0010352 0.0099202 -0.0045197 0.0088324 -0.0065935 -0.0077466 0.0021443 -0.0064668 -0.0012122 0.0062041 0.0041886 -0.002253 -0.0078444 -0.0079257 0.005418 -0.0041334 0.0076497 
best -0.0051406 0.0026449 -0.0028955 0.0065877 0.0077467 0.0062983 0.0044784 -0.0057079 0.0027511 0.0013173 -0.0011632 -0.0022452 -0.0048751 -0.0092119 -0.002408 0.0090771 0.00028715 -0.00036606 0.0082166 -0.0062992 -0.0024586 -0.0082725 -0.0013047 -0.0093196 -0.0050636 0.0035275 -0.0042561 0.00080394 0.0039919 0.0097798 0.0035276 0.00049183 0.0029 -0.001196 0.0088955 -0.0026018 0.00073351 -0.0092147 0.0016588 -0.0091165 -0.0085111 0.00072845 -0.00055392 0.0075222 0.007331 0.0013003 0.0046904 -0.0056483 -0.0052736 -0.0062837 -0.0087298 -0.008059 -0.0066491 -0.0016593 0.0023653 -0.0039274 -0.0013939 0.0034169 -0.0022148 0.0098382 -0.0011709 0.0041852 -4.3985e-05 0.00035854 -0.0078093 0.0024868 -0.0064593 0.0058362 0.00050954 0.0072788 -0.0094591 0.0062866 0.0069574 -0.0057997 -0.0094415 -0.0018951 -0.0074901 0.0044091 0.0045583 -0.0039335 -0.008023 0.0077094 0.0064128 0.0042727 0.0025949 -0.0019908 0.0097663 0.0021306 0.0055841 -0.0087919 -0.0099074 -0.0026374 -6.2083e-05 0.003457 0.0038465 -0.00060287 0.0066984 -0.0021348 -0.0068963 0.0017621 
We 0.0048845 -0.00099771 -0.0097436 -0.0051564 0.0070614 -0.00188 -0.0069933 -0.0064143 0.001087 -0.0049378 0.0098921 0.0056715 -0.0067869 -0.0073851 -0.0077589 -0.0068063 0.0010796 -0.00028694 -0.0072552 0.0020028 -0.0027746 -0.0012009 -0.0039852 0.0035089 0.0023848 -0.0086357 -0.0040657 -0.003074 0.0027098 -0.00086747 0.0083195 -0.0074892 -0.0021057 0.0049421 -0.0025947 0.0003524 -0.0045657 -0.0044373 -0.0085131 -0.0049252 0.0033477 0.0075187 -0.0014533 0.0042786 0.0092724 0.0045124 -0.0020781 0.0036792 0.0085572 -0.0073963 -0.0041431 -0.0088611 0.0095458 0.0063678 0.0017114 0.00048985 -0.0055047 0.0034102 0.002076 0.0031899 0.00058063 0.0034103 0.0069543 0.0067643 -0.0029308 -0.0083828 -0.0034728 -0.0044375 -0.009292 0.0048998 0.0016145 -2.1212e-05 0.0016986 0.0020572 0.006717 -0.0047939 -0.0074682 0.0035957 0.0053705 0.0076398 0.0055261 -0.0021029 0.0031054 -0.0040084 -0.0072534 -0.0042468 -0.0044337 0.0075491 -0.0060565 0.0010142 0.0068752 -0.0013293 -0.0032587 -0.0094945 -0.0040291 -0.0078045 -0.0094519 -0.0038698 -0.0039147 -0.0022419 
Finish -0.0053234 -0.0015141 -0.0070717 0.00085265 0.0058818 0.0091509 -0.0017734 -0.0036223 -0.0016239 -0.0089123 -0.0042065 -0.008747 0.0093451 0.00251 -0.0016059 -0.0046767 -0.0029274 -0.006986 0.0030584 0.0065507 0.0012779 0.0099747 -0.00072994 0.0028622 0.0031664 -0.0013341 -0.0049141 -0.0010545 0.006187 0.0079244 -0.0056905 0.0052267 0.0031639 -0.0052447 -0.0010115 0.0092047 0.007047 -0.0079192 -0.0090776 0.0084089 0.0011407 -0.0040969 -0.0078068 0.0078827 -0.0069148 0.00056422 -0.0037233 0.0029287 -0.0082553 -0.0084802 0.0059105 0.00113 -0.0053196 0.00020161 0.0049034 0.00072082 0.0059845 0.001981 -0.00519 -0.0076262 -0.0096619 0.0087569 8.7834e-05 0.0093804 -0.0077615 0.0090658 0.0065929 0.0070349 -0.00033236 -0.00987 0.00027047 -0.00021527 0.0033269 0.0061203 -0.0070872 -0.0065567 0.0074659 -0.0016759 -0.0085367 0.0084154 0.0042684 -0.0029188 0.00055579 0.00318 0.0092319 0.0049767 0.0035465 -0.0066661 -0.0027628 -0.0018425 -0.0048652 -0.001825 0.0032147 -0.00016135 -0.0039903 0.0043506 0.0068875 -0.0069907 0.0043126 0.0016041 
honor! -0.0057864 -0.0091552 0.0014421 0.0043861 0.0057615 0.0021022 0.00058988 0.0086775 -0.0067961 -0.0063096 0.0030715 -0.0046423 -0.0096042 0.0054466 -0.0059615 0.0019011 0.0056074 -0.0076067 -0.0083091 0.0021273 0.0046675 0.0094982 -0.0064233 0.0078369 -0.0015049 -0.006156 0.0096551 0.0077307 0.0087302 -0.0037046 -0.003229 -0.0059332 0.0017419 -0.0066724 -0.0084265 0.0076051 0.0021058 -0.0080768 0.0045682 -0.0068579 0.0097278 0.0088328 -0.0043963 -0.0030517 -0.005358 -0.0066472 -0.0037812 0.0038517 0.0051209 0.0078955 -0.0091208 0.001723 -0.0034851 -0.0085443 0.0075573 -0.0059987 -0.0066302 0.002025 0.0021928 0.0017356 0.0077842 0.0095006 0.0054347 -0.0056294 -0.00013682 0.0027539 -0.00697 0.0030663 -0.0020492 -0.00079731 0.0044777 -0.0059106 -0.0028408 0.0023622 -0.0033528 0.0081442 0.0066201 0.0041537 -0.0021622 0.00077158 0.0026637 0.0082597 0.0066247 -0.0063054 0.0082105 -0.0029269 0.004475 0.00010233 -0.001521 -0.00013993 -0.0066359 0.0070034 0.0094291 -0.009408 0.0015817 -0.005262 -0.0039729 0.0077241 0.0072621 -0.0013226 
werent 0.0038867 0.0037427 -0.0048829 -0.0076577 -9.6441e-05 -0.0087273 0.0076323 0.0065859 -6.0174e-05 0.005418 -0.0038355 -0.0069732 -0.0078438 -0.0056683 0.0023776 0.0040129 -0.0077018 0.0091373 0.0079269 0.00045775 0.0070974 -0.0039225 0.0073373 0.0058108 -0.004228 0.0018082 0.0081896 0.002198 0.0066095 -0.0048842 0.00051026 8.7465e-05 -0.0090406 -0.0057369 0.0064793 -0.0018717 0.0087692 0.0037986 0.0040206 -0.0066601 -0.0055749 -0.0084082 -0.00021392 -0.0039388 -0.0063618 -0.0035032 -0.0080733 0.0064295 0.0068437 0.0042305 -0.007733 0.00050128 -0.0081207 -0.0092229 0.0036232 -0.0049833 0.00063109 0.0099839 0.004117 -0.0044867 -0.0017607 0.0067849 0.0057368 -0.0044938 0.0097619 0.0097627 -0.0025623 0.0084654 -0.0095241 0.0037956 0.0090303 -0.001987 -0.0065574 0.0088369 -0.0091009 0.0059416 0.0068731 0.0084562 0.0030997 -0.0032859 0.0088001 -0.0034206 -0.0093908 -0.0023077 0.0037963 -0.0027642 -0.0055302 0.0068614 -0.0021559 -0.00096823 0.0072192 -0.0019317 -0.0067322 -0.0017312 -0.00081471 -0.0020461 0.0061364 0.0083957 0.00040873 -0.0092568 
Rigged -0.0048529 0.00099561 -0.0053871 -0.0056701 -0.00687 0.0049134 -0.0033624 -0.004808 0.0074392 0.0038348 -0.0045827 0.0082443 0.0038729 0.0086352 -0.00066985 0.0014947 0.0050398 -0.0078478 0.0081306 -0.0083841 -0.0070322 0.0056213 0.0047268 0.0069329 -0.00466 0.0087853 -0.0010966 0.0050272 -0.0024319 0.0045583 0.0078364 -0.0026972 0.0079635 0.0072368 0.0035096 0.0045573 0.0021654 0.0086515 -0.0030679 0.00094933 -0.0035728 -0.006135 -0.008861 0.0088142 -0.0052901 -0.0046591 0.007603 0.0082862 -0.0042959 -0.0017466 -0.008054 -0.0078983 -0.0087174 0.0037289 -0.0054987 0.0031422 0.0093772 -0.0074897 -0.0046677 -0.0020101 0.0024287 -0.0057743 -0.0059695 0.0034194 0.0092544 -0.0042639 -0.0054003 0.003007 -0.003903 0.0091098 0.0021521 -0.007426 0.0054159 -0.003896 -0.001056 -0.0020638 0.0089482 0.0053175 -0.00032642 0.0066158 0.0084184 -0.0045069 -0.0085699 0.00029954 0.0014528 0.00080387 -0.0091549 0.00025214 -0.0065782 6.8452e-05 0.0091409 0.00027649 0.0038633 0.00080309 -0.0037497 0.0060651 3.2738e-05 -0.0048101 -0.0029821 0.006694 
Hunt, 0.0042357 -0.0011125 0.0072877 0.0099478 0.0025976 -0.0089851 -0.0062324 0.0070029 0.005998 0.0042544 -0.0032931 -0.0075321 -0.0074731 -0.0026461 -0.0089953 0.0018714 -0.0038412 0.009902 0.0065486 0.0087425 -0.0014699 -0.0025112 0.0073487 0.0096931 0.0026255 0.0025175 0.0019936 0.0015436 -0.0032188 -0.006642 -0.0024345 0.0008307 -0.0080843 0.0041682 -0.0074094 -0.0051933 -0.0030619 0.0053102 -0.0054976 -0.0016995 -0.0093503 -0.0093954 -0.0096979 0.00098105 0.0046943 0.0067585 0.0093765 -0.0032589 0.0017093 -0.0091441 0.0063161 0.00079695 0.0068764 0.004121 -0.0033526 0.005857 -0.0059401 0.0083342 -0.0089912 0.0040266 0.0044459 0.0091737 -0.0056458 0.0049625 0.0058417 -0.001133 0.0011065 0.0091553 -0.0054644 0.001671 0.0020984 -0.0048651 -0.0052944 0.0078877 -0.0011114 0.0026601 0.00073099 -0.0069018 -0.0074264 -0.0095906 -0.006204 -0.0033147 0.0065989 -0.0051792 0.0070105 -0.0049673 -0.0046264 -0.0011085 -0.00096723 -0.0064238 0.0083395 -0.0072566 0.0041882 -0.0051528 -0.0094794 0.0085638 0.0075544 0.0022025 0.003303 1.5068e-07 
 0.00072477 -0.0067355 -0.0060058 -0.0097801 -0.0038713 -0.0085155 -0.0058797 0.0064436 -0.0035734 -0.0072132 0.0097627 0.0070764 -0.0076873 -0.0079808 -0.008943 0.0034668 -0.0041506 -9.7343e-05 0.0073933 -0.00084678 0.0029503 0.0048817 -0.00026774 -0.0066165 0.003718 0.0081795 0.007241 0.0055525 0.0097135 -0.00046152 0.0021351 -0.0065333 -0.00099094 -0.00061821 0.0021584 0.00047544 -0.0017519 0.0013442 0.0033199 0.0049193 0.0030863 -0.0052034 -0.0075544 0.0036593 0.0029035 0.0089919 0.0013345 0.0070637 0.0096904 0.009457 -0.0064631 0.0096154 -0.0088205 0.0045981 -0.0077912 0.0047376 -0.0023421 -0.0078726 0.0067992 -0.0033173 0.0082328 0.0015967 0.0083268 -0.0084542 -0.0072641 0.0099385 -0.0038226 0.0051633 -0.0088267 0.001679 -0.0088852 -0.0083073 -0.0089385 -0.0055544 -0.0050141 0.0031175 -0.0050419 -0.001529 -0.0003019 -0.0088115 -0.0095396 0.0087057 -0.0069128 -0.00023885 0.0080818 -0.0089144 -0.004019 -0.0032861 0.0054557 -0.0030271 -0.0073877 0.0013473 0.0019575 -0.0087744 0.0043386 0.0047952 0.0090603 -0.00023745 -0.006461 0.0074165 
would -0.00026472 0.0064761 -0.0059373 0.00078619 -0.0064719 0.0061093 -0.0067874 -0.0053804 -0.0022857 0.0093026 -0.0037239 -0.0032882 -0.0087316 -0.0056423 -0.003146 0.0035304 0.0040018 -0.0034621 -0.0050235 -0.0057502 -0.006202 0.00087944 0.0060343 0.0076252 0.007009 -0.0027961 -0.0022276 0.0042057 -0.0062112 -0.0042892 -0.0022136 0.0032434 -0.0036614 -0.004633 -0.0054941 0.0087558 0.00174 0.003765 -0.0058075 0.0072465 0.0053156 0.0083865 0.0061462 0.0093297 0.0028217 0.0054657 -0.0056009 0.0066485 -0.0072917 -0.00054972 0.0016467 0.0034739 0.001346 -0.0055464 -0.0097891 0.00028864 -0.0014065 0.0006039 -0.0056254 0.0096572 0.0010169 -0.00966 -0.0023115 -0.0045032 -0.0020019 0.0049197 0.00031551 0.009733 -0.0024813 0.0030319 -0.0061219 -0.0036776 0.0019654 0.0082717 -0.0028486 -0.0026894 -0.0012034 0.00053147 -0.0048364 0.0036569 0.0051125 0.0076381 -0.0023943 -0.002198 -0.0063953 0.0036017 -0.0078891 0.00039677 0.003136 0.00036912 0.0014598 0.0047417 0.009269 0.0038645 0.0047401 0.00084724 0.0087587 0.0081726 0.0048708 0.0026243 
25 -0.0013204 0.0061626 -0.0055099 0.002978 -0.0045229 0.00444 -0.0071594 0.0044079 -0.0043792 0.0017707 -0.0035414 0.0070801 0.0055724 0.0045208 -0.0064824 0.0033712 0.004269 -0.0028068 0.0084654 -0.0013295 0.0057629 0.0027385 0.0024346 -0.0096942 -0.0092027 0.0049889 -0.008965 -0.0039743 0.00762 -0.0059319 -0.0035707 -0.0021273 0.009564 0.0021656 -0.0028849 -0.0022877 0.007689 -0.0093871 0.0033587 -0.0076579 0.0081974 -0.00057446 0.0050144 0.0044562 0.008095 0.0040614 0.0060009 0.0089968 0.0035115 0.0074907 -0.00036731 -0.0099797 0.0048222 0.0070021 0.0051101 -0.00092671 -0.0058576 -0.0016499 0.0012836 0.0054666 0.0099646 2.5004e-05 0.0043732 -0.0048383 0.0035799 0.0074637 0.0036018 0.00026434 -0.0099989 0.0071726 0.0036861 0.0021356 -0.00028533 0.0079888 0.0061496 0.0021362 0.0095148 -0.0040636 -0.0098508 -0.0091882 -0.0038024 0.0012373 -0.00059623 -0.007563 -0.0027213 -0.00029164 -0.00065486 -0.0021306 0.007185 -0.0056339 -0.00031904 -0.00041258 -0.0013668 -0.0087411 -0.0097773 -0.0089121 -0.0081518 0.0034351 0.0020256 -0.0034371 
points -0.0031105 0.0022269 0.0054337 0.0078064 0.0074751 -0.0041457 -0.0080667 -0.0035945 0.0094544 -0.0048366 0.0061713 0.0098678 -0.0066239 -0.004347 0.0064435 0.0065326 0.0092337 0.0083535 0.0051308 0.0015676 -0.0066816 -0.0083672 0.0034422 0.0020894 0.0062776 0.0033452 -0.0074345 0.0082149 -0.0019781 0.0014124 0.0012309 0.009428 0.0064195 -0.0011934 0.0098902 -0.001332 -7.3518e-05 -0.00044884 5.0451e-05 0.0077328 -0.0091803 -0.0042725 -0.0047935 -0.0082434 -0.0019782 -0.0056863 0.0042048 0.0072776 -0.0036514 -0.004009 0.0065697 0.0036251 0.003944 -0.0030059 -0.0084436 -0.0028619 0.0041371 -0.0057978 -0.004656 0.0081648 0.0097996 0.0012637 -0.0037024 0.0060001 -0.006254 0.0018187 0.0044391 0.0032878 0.0096361 0.0066526 -0.0058255 -0.0025128 0.0076304 -0.00024594 -0.0026355 -0.004198 -0.00038977 -0.0058387 -0.0011925 0.003744 -0.0045419 -0.009 0.0058702 -0.0014977 -0.0087744 -0.0090555 0.0063564 0.0043532 -0.0068151 -0.0081926 0.0082249 -0.0098808 0.002977 0.0028962 0.0070957 0.007367 0.0047463 0.0064668 0.0073968 -0.0014222 
higher! 0.0018805 0.0097205 -0.0083712 0.0063772 -0.0094812 -0.0030296 -0.0078162 0.0031918 -0.002698 -0.0041523 -0.008913 0.00932 -0.00023579 0.0066178 0.0041677 -0.0077977 -0.0057047 0.0014442 0.0017359 0.008257 -0.00096365 0.0040468 0.004115 0.0054735 -0.0060021 -0.0001485 0.0014152 -0.0041957 -2.5263e-05 0.009353 -0.0012798 0.0063904 0.0092498 -0.0069085 0.0054358 0.0072649 -0.0055695 -0.0034537 -0.0042158 0.0065481 0.0020015 -0.00085181 0.004361 -0.006929 0.005811 -0.0052739 -0.0064366 -0.0032301 1.952e-05 0.0053767 0.0094895 0.0069712 0.0010127 -0.009611 -0.0031682 -0.0097838 0.0057386 -0.0083265 -0.0030452 -6.9563e-05 -9.7652e-06 -0.0010568 -0.0081671 0.00061061 -0.0059701 -0.0031163 -0.005521 -0.0014244 -0.0030189 -0.00070098 0.00062614 -0.0019763 -0.0057144 -0.0079023 0.003294 -0.009298 -0.0094259 0.0045292 -0.0082722 0.0042253 -0.00071553 -0.000189 0.00052718 0.0099994 0.0025417 0.0054909 -0.0046615 -0.003558 0.0084937 0.0093981 0.0067505 0.00052979 0.0021374 0.0083737 -0.00089393 -0.0046021 -0.0044691 -0.0053574 -0.0079775 0.0040277 
from 4.4703e-05 -0.0058218 -0.003742 0.0073521 -0.0010926 0.0036355 0.0053052 -0.0096368 -0.0072077 -0.00082251 0.0030712 -0.0022445 -0.0027904 -0.0073671 0.007842 -0.0040626 0.0040468 0.0058516 0.0057645 0.0072499 0.0089282 -0.0089894 0.00086556 -0.0019243 -0.0046615 0.0046446 -0.0026614 -0.0084241 -0.0027873 -0.0007058 -0.0069598 0.0092902 0.0091943 -0.0050568 -0.0050489 -0.0096037 5.0496e-06 -0.0062356 0.00013983 0.0086791 -0.0035072 -0.0010985 -0.0028346 -0.00022741 -0.0028961 0.0060559 -0.0072396 -0.0089566 0.002456 -0.0023607 0.0064115 -0.0015306 -0.0044365 0.003165 0.0037599 -0.0074046 0.001717 -0.0085385 -0.00088963 -0.0070413 -0.00084275 -0.0039928 0.0051301 0.0010349 -0.0078163 0.0073423 0.0097844 0.0085891 0.0071994 0.0070986 -0.0082869 -0.0034549 0.006286 0.0063452 -0.0062681 -0.002893 -0.0088667 -0.005629 0.0047116 0.0078205 0.0035468 -0.00024467 0.008882 -0.0065763 -0.0015724 0.0022004 0.00942 -0.0074949 -0.0015849 -0.0052934 0.0065289 0.0058952 0.0005534 -0.0012597 0.0083158 -0.0034983 -0.0053071 0.0010752 -0.0043475 -0.0036185 
@FEMA_Brock 0.0071012 0.00045719 0.0090116 0.0067619 -0.0056497 0.0039799 -0.0060964 0.00273 -0.0060445 0.0065982 -0.0097401 -0.0061486 0.0045177 -0.0003614 -0.0045657 0.0021683 0.0055683 0.0019649 0.0059579 -0.0081893 -0.0085457 0.006117 -0.0074078 0.0047493 0.00056313 0.0077118 -0.002579 0.0035375 -0.0092107 -0.0023591 -0.0091346 -0.0035693 0.0017605 -0.0084194 -0.0074461 -0.0035852 -0.0027164 -0.0030341 -0.0010376 0.0079877 -0.0050986 -0.0071218 0.0075667 0.0039939 0.0059194 0.0053343 0.0056075 -0.0089865 0.00073634 0.0066566 0.0067543 0.0084545 -0.0094615 0.0018588 -0.0026538 0.00080946 -0.00056532 -0.0098798 0.00034087 0.00068095 0.0092915 0.005255 -0.0098147 -0.0045382 0.0086275 -0.00030453 -0.0071959 -0.0051538 -0.00057665 0.0051228 -0.0095138 -0.0083745 0.0058044 0.0042555 -0.0048876 -0.0040817 0.0087053 -0.0058803 0.0083594 -0.0096039 0.0045043 -0.0038834 0.0011303 0.0072098 -0.0011879 0.0054027 0.00051486 -0.0046271 0.0048561 -0.0098105 -0.0096966 0.004074 -0.0014241 -0.0013122 0.0071301 0.00078994 0.0065855 -0.003643 -0.0091185 -0.0059728 
Administrator 0.0085423 -0.0015148 -0.0078354 0.005969 -0.0033319 -0.005169 -0.0030148 -0.004272 0.007654 -0.0090997 -0.00074974 -0.0057236 0.0079837 0.0022152 -0.0014138 -0.0040696 0.0087528 0.0035807 -0.007526 0.0033628 -0.0010746 -0.0033949 0.0016268 -0.0081732 -0.0058095 -0.00041633 0.0033959 0.0031672 0.0073101 -0.0067928 0.004646 0.0078114 0.0095443 -0.0084162 -0.0095575 -0.0043858 -0.0059858 0.006729 -0.0080815 -0.0060483 0.0083685 -0.009162 0.0088748 -0.0007164 0.0016435 -0.0065961 0.0034418 0.0085284 -0.0092086 -0.00067749 -9.4315e-05 0.00037095 0.00057491 0.00099662 -0.001131 -0.0085291 -0.0060358 -0.0066539 -0.0060929 0.00014117 -0.0050739 -0.0023225 0.0036748 -0.00092721 -0.006425 -0.0038041 -0.00028935 -0.0075837 0.0021964 -0.0085297 -0.0075901 -0.0076254 0.0077298 -0.0061011 0.0026997 -0.0041038 -0.002931 -0.0062827 -0.0081503 0.003108 0.0083017 0.0064611 0.0079081 -0.0038597 -0.0036506 -0.0085858 -0.0056039 0.0033633 -0.0074665 0.0085625 -0.0043937 0.0088063 0.0049435 -0.0013578 -0.0052994 0.0062417 0.0059988 0.006254 -0.0015178 -0.0058753 
played -0.008338 -0.0085645 -0.0095947 0.0055115 -0.0093649 0.0074394 -0.0011354 0.0050877 -0.0090749 0.0038395 0.0021504 -0.0067076 -0.0098329 -0.0087611 -0.00061348 -0.0042054 0.0093132 0.00254 0.0073836 -0.0080213 -0.009203 -0.0060701 0.00090697 0.0015811 -0.0015145 -0.0098724 0.00049598 0.005691 -0.0059073 -0.00080607 0.0069769 -0.0019127 0.0079519 -0.0016162 -0.00061804 0.0013329 0.0099828 -0.00077692 0.00050481 -0.0067911 -0.0037469 0.0085014 -0.0052521 -0.0046081 -0.0049442 0.0025003 0.0059476 0.0058035 -0.0069337 -0.0064001 -0.0076768 -0.0082938 0.0074283 0.0058882 0.0080917 0.0067568 0.00032855 -0.0016141 -0.0019691 0.0026762 -0.0019354 0.0069855 0.0019619 0.005953 -0.0047488 -0.0070474 0.0079323 -0.00085499 -0.0059261 -0.005105 0.004986 0.0065876 -0.0029496 -0.0082605 -0.0069919 0.0085675 0.0099621 0.0045936 -0.006735 0.0052487 0.0043868 -0.0088317 -0.0047227 0.0094077 0.0088088 -0.00272 -0.0096759 0.00022952 0.0027394 -0.0089401 -0.0093037 0.0021231 -0.00096159 -0.0024878 0.0032499 0.0053935 0.00018245 -0.0070133 -0.0055984 0.0017115 
like -0.0082552 -0.002643 -0.0072459 -0.0087271 0.0062034 -0.0065398 0.0052607 0.0046145 -0.0055931 -0.0059858 0.00026899 -0.006575 0.0020424 0.00059456 -0.0062453 -0.0084914 0.0032307 -0.0080649 0.0012996 0.0065937 0.0050998 0.0057347 0.0029772 -0.003311 0.0089746 0.0013735 -0.008146 -0.00854 0.0010472 0.0076027 -0.00094461 0.0068951 -0.0086555 0.0011661 -0.00077969 -0.0047985 -0.0092836 -0.0016339 0.0065179 0.0092205 -0.0031715 -0.0029059 0.00054447 -0.0024929 -0.0099805 -0.0084005 -0.002211 0.0022172 -0.0070993 0.0024416 0.0052684 -0.0015457 -0.00078196 -0.003312 0.0098682 -0.0037651 0.0011093 -0.00035929 0.0014289 0.0060048 0.0089084 0.0041396 -0.0083571 -0.00078436 -0.0042529 -0.0038161 0.005858 -0.0075535 -0.006243 -0.0029104 -0.0074355 0.0038455 -0.00053638 0.0010976 -0.0015794 0.0069572 -0.0055157 -0.0049208 0.00038514 0.0008441 -0.0051587 -0.0018393 -0.0036245 -0.0093543 -0.0052025 -0.0032896 0.0056778 -0.0098532 0.0021733 1.7699e-05 0.00088215 0.0067824 0.009614 0.0088224 0.00036437 0.0012379 0.00048567 -0.0030686 -0.00034656 -0.0021321 
fiddle 0.0023604 0.0081913 0.008799 -0.0079367 -0.0083104 0.0088079 0.0039487 0.0094772 -0.00264 -0.0012085 0.0066365 -0.0036342 0.0029142 -0.0092565 -0.0064991 0.0086428 -0.0058466 0.0057614 -0.0010591 0.0068273 -0.0028751 -0.0091158 0.0090347 0.0050509 0.008072 0.0055186 -0.0090511 0.0013148 -0.0075467 0.0038546 -0.0075519 -0.0012971 -0.0080946 -0.0016366 0.0023108 0.0092179 0.0086477 -0.0049073 0.0095419 0.0091027 -0.0044967 0.0015448 0.0020922 0.0090043 0.0030617 0.0070059 -0.002822 0.001753 0.0034338 0.0056547 0.0038392 0.0044934 0.0097827 0.0070427 0.0092209 -0.0046303 -0.0045672 0.0062301 0.00059369 0.0047723 0.0023365 -0.0099316 0.00041305 -0.0089534 0.00017451 -0.0053418 -0.0061414 0.006297 -0.0033843 -0.0078358 0.0014906 -0.0096017 -0.0047426 -0.00040839 -0.0098319 -0.0046455 -0.0067569 -0.00027134 0.0061734 0.0062997 0.0022805 0.0004863 0.00619 0.0082164 0.006689 0.0044414 0.0054984 0.00532 0.0079028 0.0032658 0.0035409 0.0088623 0.0030409 -0.0096032 -0.0061401 -0.0004122 -0.0053722 -0.0047455 0.0047719 -0.0028547 
President. -0.0062402 -0.0010596 0.0037277 0.00033339 0.0079177 0.00072383 -0.0095657 0.0064007 0.0069836 -0.0022504 -0.00036216 0.0012349 0.0056946 0.0094493 -0.0073517 -0.0071513 -6.873e-05 -0.0035541 0.00027106 -0.0096747 -0.0074521 -0.00080579 -0.0025595 0.0081948 -0.0091315 -0.0020453 -0.0093756 0.0010445 -0.0080622 0.0088129 0.0018696 0.0025875 0.0093846 -0.0040249 -0.00036635 -0.003764 0.00061933 -0.0060034 -0.0086318 0.0099335 -0.0055157 -0.0045431 0.0084441 0.0014638 0.0015289 7.7932e-05 -0.0051913 -0.0028697 -0.0011966 -0.0083904 -0.00081909 0.0012236 -0.00786 -0.0068298 0.0091199 -0.0046015 0.0029291 0.0063137 0.0050642 -0.0061094 0.0078718 0.0010889 0.0069367 0.0040469 0.0076809 0.0037987 -0.0026531 -0.0021171 -0.0082541 -0.008403 0.0071298 0.0095066 0.0015641 0.0099392 0.0031353 -0.0033032 -0.0052258 -0.0011503 0.0028518 -0.0088677 -0.0031731 0.0074237 -0.0082781 0.0040132 -0.0057327 -0.0019888 -0.0032914 0.0060176 -0.0053944 0.00081214 0.0052214 -0.0063858 0.0047887 0.0030492 -0.0078591 -0.0097934 0.005439 -0.0066014 0.0055719 0.00092075 
Security -0.0078628 0.0067236 -0.00036112 -0.0031327 -0.0097693 0.0070088 -0.0007917 0.0036281 0.0033783 0.0097467 -0.0099438 -0.0065771 0.0026338 -0.0098282 0.0091301 0.0074075 0.0096785 -0.0077971 -0.0014006 0.0063331 0.0081851 -0.0095753 -0.00055721 -0.0031496 -0.0092 -0.0034201 0.0091114 -0.002895 0.0010224 -0.00028201 0.009191 0.0027298 -0.006339 0.0016359 0.0027128 -0.0099655 0.006238 0.0073503 -0.0014226 -0.0054737 -0.0040796 -0.0093208 -0.0026408 -0.0059911 -0.0071798 0.0078984 -0.0023026 -0.0056037 -0.0068196 0.0068144 -0.0094365 -0.00093195 0.0014167 0.0066649 -0.0065704 -0.0073338 -0.0030096 0.00075781 -0.0061813 0.0042942 -0.0070639 -0.0036528 0.0038105 -0.0088532 -0.0008722 0.0024754 0.0049081 -0.0071881 -0.0086043 -0.0017542 0.00024847 0.0092736 0.0059584 -0.002615 0.0036255 0.0029395 0.0058876 -0.0038585 -0.00052268 -0.0084233 0.00034156 0.0048089 -0.0047869 -0.0062633 0.0043782 0.0006013 0.0023944 -0.0096357 -0.0082977 0.0060539 -0.0096152 0.005288 -0.0062243 0.0079185 0.0074778 0.0072313 0.00030918 0.0015882 -0.0044741 0.006897 
Building -0.0089763 0.002603 0.0021444 0.0097996 0.0072641 0.003604 -0.0097373 0.0060565 -0.0019014 0.0043462 -0.0083514 -0.0068035 0.0098727 0.0019596 -0.0090665 -0.0097676 0.0031526 0.0067828 -0.0052783 0.0023562 -0.0088196 -0.0065572 0.0091443 -0.0062741 -0.0020361 0.0047822 0.0028569 -0.007244 -0.0063351 0.009101 -6.4802e-05 -0.0041245 0.009007 -0.0080419 0.0050197 0.0023135 -0.0019161 -0.0015559 -0.0024624 -0.0049017 0.0042934 0.0030484 -0.00638 -0.00202 0.0042342 -0.0008262 0.004419 -1.286e-05 0.00073674 -0.0067945 -0.0060806 -0.00015306 -0.0079682 0.0050041 -0.0072526 -0.00021883 0.003012 0.0070168 -0.0073679 -0.0044334 -0.0063734 -0.0041281 0.0048339 0.0013814 0.0087938 0.0037603 0.0030582 -0.0077885 0.0046951 -0.0017669 0.007153 0.00083691 -0.004084 -0.0062939 -0.0045896 0.0098744 -0.0030743 -0.0036359 -0.0072137 0.0022923 -0.008994 0.0062679 0.0084098 0.0065043 0.008435 -0.0098672 0.007463 0.0026434 4.6693e-05 -0.005214 0.004913 0.0092063 0.0027883 -0.0032488 -0.0040795 -0.00067062 0.0096865 -0.0074851 -0.0011196 0.0091756 
Wall? -0.0083817 -0.0092372 -0.0083123 0.0053241 0.0061121 0.0078161 -0.0069974 0.007543 -0.0019818 0.00085129 -0.00063578 0.0074966 -0.0052704 -0.002949 -0.00084232 0.0017495 0.0060144 0.0065004 -0.0014018 -0.0095655 -0.0096211 -0.00044674 0.0068431 0.0062258 -0.0080271 -0.0093731 -0.003793 0.0082726 -0.0034823 0.0010086 -0.0031185 0.0066711 -0.0033578 -0.00044263 -0.0029264 0.0069182 0.003768 -0.0013256 -0.0012534 0.007657 0.004176 0.00082668 -0.00041987 -0.0035326 0.0045053 -0.0061948 0.0032107 -0.006968 0.0046518 0.0097494 0.0067285 0.0094839 -0.0036924 0.0070975 -0.002938 -0.0095519 -0.0024611 -0.008994 -0.0043358 -0.0053682 -0.0036353 -0.0022599 0.0024323 -0.0042682 0.0037538 -0.0069749 0.0064442 0.0021806 -0.0072217 -0.0043434 0.0073666 -0.002678 -0.0041564 0.005252 0.0060425 -0.0060324 0.0046384 -0.0071487 0.0036419 0.0064713 -0.0081564 0.0058961 -0.004307 0.0025234 -0.00049256 -0.0042872 -0.0098852 -0.0072129 -0.0030417 0.0028375 0.003701 -0.0093662 0.0064272 0.0084501 0.0096642 -0.00064586 -0.0077126 -0.008682 0.0064408 0.0084103 
Without 0.0076883 -0.0041905 0.0087094 0.0044922 -0.0054284 -0.0053134 -0.008647 0.0049799 -0.0027175 -0.0042822 0.0074161 0.0026646 -0.0087314 -0.0090521 0.006571 0.0061227 -0.0030222 -0.0054514 0.0059224 -0.0078902 0.0072861 0.0040622 0.0012928 0.00024194 -0.0019868 -0.0030765 0.0089703 -0.00239 -0.0089719 0.0070258 -0.0098005 0.00091516 -0.0098535 -0.0098618 -0.0092807 -0.0090648 -0.0067817 0.0023087 0.00087454 0.0053264 0.00043381 -0.00057722 0.00553 -0.0076299 -0.0046962 1.5579e-05 0.0036718 0.002649 0.0064531 -0.00010231 -0.0046621 -0.0010983 -0.0017869 0.0079563 -0.00093588 -0.0052695 -0.002101 -0.009745 -0.0044312 -0.0028359 0.0094802 -0.0035578 0.0039611 0.0019416 -0.0090396 0.0057811 0.0052849 -0.0038315 0.0042884 -0.0014854 0.0073718 0.0081048 0.0040679 -0.0039392 -0.0051737 -0.0023736 -0.0092071 -0.0063726 0.0049849 -0.0080199 -0.0074815 -0.007125 -0.0073379 0.0071401 0.0045614 -0.0050406 -0.0046848 0.0079745 0.0083845 -0.0034542 -0.0058196 0.0031868 -0.0096403 0.0028772 0.0046953 -0.0064505 -0.00044325 0.0027318 -0.0087379 -0.0017062 
Brock -0.0002034 0.0044406 0.0052075 -0.0033763 -0.00078388 -0.0037189 -0.0073027 0.0094261 -0.0031965 -0.0033905 -0.0077474 0.0026788 0.0014743 -0.0018414 -0.0083208 0.00030758 0.0097251 -0.0060784 -0.004085 -0.0020596 0.0079327 -0.0082211 -0.0075658 -0.00021506 0.008381 -0.0035977 -0.0040234 -0.0065236 0.0082443 0.0087017 -0.0050307 -0.00026119 0.0038618 -0.002994 0.0051075 -0.0032013 -0.0042218 -0.00074485 -0.00039301 -0.0084316 -0.0019763 -0.0070269 0.00060731 -0.0023 0.0094799 0.0031373 0.0094813 -0.00015951 0.0081907 -0.0062714 0.005765 0.0022552 -0.0091102 -0.0030984 -0.0014491 0.0044911 0.0045451 0.0028987 -0.0046194 -0.0031742 -0.001287 -0.0028724 0.0062286 0.0039816 0.0070881 0.0027353 0.0017708 -0.0066649 0.00070998 0.0065958 0.00035366 0.0066915 -0.00066337 -0.00016412 -0.001293 0.008486 0.00033316 0.0068938 -0.0047834 -0.0012806 0.0035645 -0.0054991 0.0038716 0.0039971 -0.0060958 0.0098593 0.002065 0.0030463 -0.0066577 0.0030205 0.0057878 -0.0028352 0.0077325 -0.0095748 0.0075079 0.0084013 0.0083104 -0.0065236 0.00059497 0.005353 
support 0.0030567 0.0015993 -0.0039232 0.0047405 -0.00057214 0.0085622 -0.0090688 0.00040891 -0.0093185 0.0072714 -0.007466 -0.0068443 -0.0041957 0.0027971 0.0039749 -0.0021691 0.0013086 0.0016317 -0.0096626 0.0072681 -0.0063279 -0.0033631 -0.007244 -0.0030049 0.00071493 -0.0057679 0.0097798 -0.0078616 -0.0094496 -0.0012205 0.0025673 -0.0018809 -0.0039429 -0.00081105 0.0042077 0.0066193 0.00042866 -0.0049839 0.0091363 -0.0039398 0.0018741 0.007861 -0.0030637 -0.0077723 -0.00037138 0.0050503 -0.0035984 0.0083248 0.0069696 0.0017418 0.0088989 -0.0077568 0.0008305 0.009812 0.0051509 -0.002135 -5.8279e-05 -0.0019385 0.0047507 0.00053917 0.0032815 -0.001933 -0.0093557 -0.0059846 0.002018 -0.0094422 -0.006564 0.0092054 0.0028155 0.0050659 0.0020393 0.0095136 0.00085483 -0.0038536 -0.0099353 -0.0015914 -0.0041121 -0.0059724 0.0073229 0.0053144 0.0060483 0.0054213 -0.0052009 -0.0036926 -0.0038183 0.0079624 -0.0093682 0.0056394 -0.0018724 -0.0049483 -0.0010999 0.0080014 0.0033761 -0.0085352 -0.0057719 -0.0014318 0.0034552 -0.0066326 -0.0080291 -0.00083994 
